{"learner":{"attributes":{"scikit_learn":"{\"_estimator_type\": \"classifier\"}"},"feature_names":[],"feature_types":[],"gradient_booster":{"model":{"gbtree_model_param":{"num_parallel_tree":"1","num_trees":"100"},"iteration_indptr":[0,1,2,3,4,5,6,7,8,9,10,11,12,13,14,15,16,17,18,19,20,21,22,23,24,25,26,27,28,29,30,31,32,33,34,35,36,37,38,39,40,41,42,43,44,45,46,47,48,49,50,51,52,53,54,55,56,57,58,59,60,61,62,63,64,65,66,67,68,69,70,71,72,73,74,75,76,77,78,79,80,81,82,83,84,85,86,87,88,89,90,91,92,93,94,95,96,97,98,99,100],"tree_info":[0,0,0,0,0,0,0,0,0,0,0,0,0,0,0,0,0,0,0,0,0,0,0,0,0,0,0,0,0,0,0,0,0,0,0,0,0,0,0,0,0,0,0,0,0,0,0,0,0,0,0,0,0,0,0,0,0,0,0,0,0,0,0,0,0,0,0,0,0,0,0,0,0,0,0,0,0,0,0,0,0,0,0,0,0,0,0,0,0,0,0,0,0,0,0,0,0,0,0,0],"trees":[{"base_weights":[-1.01305755E-8,5.531968E-1,-5.702952E-1,5.8320385E-1,5.40361E-1,5.9227955E-1,4.781533E-1,5.3287435E-1,5.857482E-1,5.904399E-1,1.012782E0,4.4887403E-1,8.307361E-1,5.279901E-1,6.028964E-1,-7.899138E-2,5.886603E-1,5.935874E-1,4.4643664E-1,7.417051E-1,1.5030631E0,5.797224E-1,3.7492406E-1,9.1373014E-1,-2.7971575E-1,4.111788E-1,5.3026515E-1,8.627259E-1,5.7140476E-1,-2.5779536E-1,2.5912908E-1,6.040516E-1,4.6841156E-1,1.6449851E-1,1.8125406E-1,6.650108E-2,1.9362622E-1,2.9186916E-1,-1.9814465E-2,1.3893427E-1,4.8297548E-1,2.5545624E-1,1.4557466E-1,7.1134225E-2,1.5066485E-1,3.42687E-1,7.851566E-2,1.0980961E-1,2.1069443E-1,1.6135886E-1,1.5036643E-1,6.294344E-2,2.8804973E-1,-1.0490992E-1,1.7273815E-1,-1.4159024E-1,9.858612E-2,1.6872552E-1,1.9519147E-1,1.2337421E-1,2.4119668E-1],"categories":[],"categories_nodes":[],"categories_segments":[],"categories_sizes":[],"default_left":[0,0,0,0,0,0,0,0,0,0,0,0,0,0,0,0,0,0,0,0,0,0,0,0,0,0,0,0,0,0,0,0,0,0,0,0,0,0,0,0,0,0,0,0,0,0,0,0,0,0,0,0,0,0,0,0,0,0,0,0,0],"id":0,"left_children":[1,3,-1,5,7,9,11,13,15,17,19,21,23,25,27,29,31,33,35,37,39,41,43,45,-1,47,49,51,53,55,-1,57,59,-1,-1,-1,-1,-1,-1,-1,-1,-1,-1,-1,-1,-1,-1,-1,-1,-1,-1,-1,-1,-1,-1,-1,-1,-1,-1,-1,-1],"loss_changes":[4.1957414E4,1.1588867E1,0E0,8.531982E0,7.0473633E0,5.98291E0,7.27153E0,6.0444336E0,5.963623E0,3.5751953E0,3.6240082E0,6.419525E0,8.988129E0,4.4052734E0,9.3749695E0,2.6187406E0,5.3499756E0,3.6420898E0,8.142273E0,4.720805E0,5.5690384E-1,5.899338E0,7.6180115E0,7.689827E0,0E0,4.170307E0,3.4956055E0,7.9676514E0,4.5617676E0,1.7524339E0,0E0,4.8605957E0,6.379692E0,0E0,0E0,0E0,0E0,0E0,0E0,0E0,0E0,0E0,0E0,0E0,0E0,0E0,0E0,0E0,0E0,0E0,0E0,0E0,0E0,0E0,0E0,0E0,0E0,0E0,0E0,0E0,0E0],"parents":[2147483647,0,0,1,1,3,3,4,4,5,5,6,6,7,7,8,8,9,9,10,10,11,11,12,12,13,13,14,14,15,15,16,16,17,17,18,18,19,19,20,20,21,21,22,22,23,23,25,25,26,26,27,27,28,28,29,29,31,31,32,32],"right_children":[2,4,-1,6,8,10,12,14,16,18,20,22,24,26,28,30,32,34,36,38,40,42,44,46,-1,48,50,52,54,56,-1,58,60,-1,-1,-1,-1,-1,-1,-1,-1,-1,-1,-1,-1,-1,-1,-1,-1,-1,-1,-1,-1,-1,-1,-1,-1,-1,-1,-1,-1],"split_conditions":[9.9250305E-1,-6.0786575E-1,-5.702952E-1,1.4449779E0,1.4764686E0,1.4316938E0,1.4623132E0,8.1938577E-1,-1.7131389E0,1.363768E0,3.000341E-1,-2.13318E-1,1.6821251E0,-1.6602343E0,-1.3814291E0,1.32352E0,1.3238252E0,-1.1714624E0,-3.823348E-2,-2.193176E-1,-1.4339218E0,-7.4367887E-1,-1.1289493E0,2.1347548E-1,-2.7971575E-1,1.3372774E0,3.000341E-1,-1.0849802E0,-1.7131389E0,7.580093E-1,2.5912908E-1,1.3702935E-1,1.5300065E0,1.6449851E-1,1.8125406E-1,6.650108E-2,1.9362622E-1,2.9186916E-1,-1.9814465E-2,1.3893427E-1,4.8297548E-1,2.5545624E-1,1.4557466E-1,7.1134225E-2,1.5066485E-1,3.42687E-1,7.851566E-2,1.0980961E-1,2.1069443E-1,1.6135886E-1,1.5036643E-1,6.294344E-2,2.8804973E-1,-1.0490992E-1,1.7273815E-1,-1.4159024E-1,9.858612E-2,1.6872552E-1,1.9519147E-1,1.2337421E-1,2.4119668E-1],"split_indices":[0,5,0,3,5,3,2,0,2,3,0,1,4,2,3,3,2,0,2,0,2,4,5,0,0,3,0,1,2,4,0,3,1,0,0,0,0,0,0,0,0,0,0,0,0,0,0,0,0,0,0,0,0,0,0,0,0,0,0,0,0],"split_type":[0,0,0,0,0,0,0,0,0,0,0,0,0,0,0,0,0,0,0,0,0,0,0,0,0,0,0,0,0,0,0,0,0,0,0,0,0,0,0,0,0,0,0,0,0,0,0,0,0,0,0,0,0,0,0,0,0,0,0,0,0],"sum_hessian":[3.9895953E4,3.0903557E4,8.992396E3,9.245461E3,2.1658094E4,8.505964E3,7.3949725E2,1.8602371E4,3.0557244E3,8.471308E3,3.4656143E1,6.8489514E2,5.4602123E1,1.7397383E4,1.2049866E3,1.3214212E1,3.0425103E3,8.287057E3,1.84251E2,2.3935177E1,1.0720965E1,2.4483693E2,4.4005823E2,5.2607525E1,1.9945982E0,3.3584045E2,1.7061543E4,1.2740496E2,1.0775817E3,1.1718265E1,1.4959486E0,2.6937048E3,3.4880536E2,1.5817163E3,6.7053403E3,8.751299E1,9.673801E1,1.8450033E1,5.485145E0,1.4959486E0,9.225017E0,6.1084568E1,1.8375235E2,2.1267403E2,2.2738419E2,3.8396015E1,1.4211512E1,2.9270728E2,4.3133186E1,1.3509912E4,3.5516313E3,1.6954084E1,1.10450874E2,4.7371707E0,1.0728445E3,8.726367E0,2.991897E0,1.4293789E3,1.2643259E3,2.9993768E2,4.8867653E1],"tree_param":{"num_deleted":"0","num_feature":"6","num_nodes":"61","size_leaf_vector":"1"}},{"base_weights":[-5.43562E-3,3.8641843E-1,-4.5279342E-1,4.0763932E-1,3.7734604E-1,4.2100373E-1,3.7060225E-1,4.0565345E-1,3.7128043E-1,4.1499576E-1,5.952623E-1,2.9317763E-1,3.9252535E-1,3.884519E-1,5.309305E-1,3.280652E-1,3.8068542E-1,3.933962E-1,4.4322735E-1,2.6189902E-1,6.5544945E-1,1.07599765E-1,3.759862E-1,1.5711697E-2,3.9784232E-1,4.25799E-1,3.5598278E-1,3.73654E-1,6.1576074E-1,3.1358486E-1,4.5654857E-1,3.621117E-1,3.9939466E-1,1.1723012E-1,2.8877327E-1,1.4010529E-1,1.1634549E-1,1.5446898E-1,-6.762037E-2,2.4589014E-1,1.7935471E-1,-3.7213138E-1,3.8073126E-2,1.6622658E-1,9.128123E-2,3.580339E-1,-5.2597344E-2,1.342776E-1,1.0889037E-1,1.2955368E-1,-9.675837E-3,7.8148276E-2,1.1699285E-1,1.4717722E-1,-5.8916997E-2,2.5225818E-1,1.3752188E-1,8.896319E-2,1.2720796E-1,9.610114E-2,1.93732E-1,1.506899E-1,1.0611809E-1,1.1604487E-1,1.4430636E-1],"categories":[],"categories_nodes":[],"categories_segments":[],"categories_sizes":[],"default_left":[0,0,0,0,0,0,0,0,0,0,0,0,0,0,0,0,0,0,0,0,0,0,0,0,0,0,0,0,0,0,0,0,0,0,0,0,0,0,0,0,0,0,0,0,0,0,0,0,0,0,0,0,0,0,0,0,0,0,0,0,0,0,0,0,0],"id":1,"left_children":[1,3,-1,5,7,9,11,13,15,17,19,21,23,25,27,29,31,33,35,37,39,41,43,45,47,49,51,53,55,57,59,61,63,-1,-1,-1,-1,-1,-1,-1,-1,-1,-1,-1,-1,-1,-1,-1,-1,-1,-1,-1,-1,-1,-1,-1,-1,-1,-1,-1,-1,-1,-1,-1,-1],"loss_changes":[2.2994807E4,5.8061523E0,0E0,4.4265137E0,3.574463E0,6.867798E0,4.065918E0,8.021606E0,7.1428223E0,3.8336182E0,4.326561E0,8.373348E0,3.8338928E0,3.9239197E0,5.8835754E0,5.816101E0,4.9560547E0,5.2095947E0,3.5639648E0,4.5484166E0,1.2996368E0,4.59138E0,4.661766E0,6.443748E0,3.1166382E0,4.3287964E0,5.7539673E0,1.09685135E1,1.0103714E1,5.298065E0,8.098717E0,8.493164E0,7.312256E0,0E0,0E0,0E0,0E0,0E0,0E0,0E0,0E0,0E0,0E0,0E0,0E0,0E0,0E0,0E0,0E0,0E0,0E0,0E0,0E0,0E0,0E0,0E0,0E0,0E0,0E0,0E0,0E0,0E0,0E0,0E0,0E0],"parents":[2147483647,0,0,1,1,3,3,4,4,5,5,6,6,7,7,8,8,9,9,10,10,11,11,12,12,13,13,14,14,15,15,16,16,17,17,18,18,19,19,20,20,21,21,22,22,23,23,24,24,25,25,26,26,27,27,28,28,29,29,30,30,31,31,32,32],"right_children":[2,4,-1,6,8,10,12,14,16,18,20,22,24,26,28,30,32,34,36,38,40,42,44,46,48,50,52,54,56,58,60,62,64,-1,-1,-1,-1,-1,-1,-1,-1,-1,-1,-1,-1,-1,-1,-1,-1,-1,-1,-1,-1,-1,-1,-1,-1,-1,-1,-1,-1,-1,-1,-1,-1],"split_conditions":[9.9250305E-1,-6.0786575E-1,-4.5279342E-1,8.1171435E-1,-1.1225739E0,7.297826E-1,-1.0849037E0,1.5300065E0,-6.0579425E-1,-3.3667642E-1,-1.4763384E0,1.0954641E0,8.254965E-1,-5.0592013E-2,-7.386693E-1,1.4510962E0,6.07996E-1,1.7217429E0,4.042541E-1,1.2691686E-1,-9.9834514E-1,-1.6726679E0,-1.5176969E0,-8.252279E-1,1.1890321E0,1.6947029E0,-9.9834514E-1,1.1045527E0,-4.620037E-2,6.4626855E-1,7.816905E-1,-4.708234E-1,1.3355817E0,1.1723012E-1,2.8877327E-1,1.4010529E-1,1.1634549E-1,1.5446898E-1,-6.762037E-2,2.4589014E-1,1.7935471E-1,-3.7213138E-1,3.8073126E-2,1.6622658E-1,9.128123E-2,3.580339E-1,-5.2597344E-2,1.342776E-1,1.0889037E-1,1.2955368E-1,-9.675837E-3,7.8148276E-2,1.1699285E-1,1.4717722E-1,-5.8916997E-2,2.5225818E-1,1.3752188E-1,8.896319E-2,1.2720796E-1,9.610114E-2,1.93732E-1,1.506899E-1,1.0611809E-1,1.1604487E-1,1.4430636E-1],"split_indices":[0,5,0,3,3,3,0,1,3,3,5,3,3,4,0,4,5,2,3,0,0,2,0,0,3,2,0,4,0,0,5,3,4,0,0,0,0,0,0,0,0,0,0,0,0,0,0,0,0,0,0,0,0,0,0,0,0,0,0,0,0,0,0,0,0],"split_type":[0,0,0,0,0,0,0,0,0,0,0,0,0,0,0,0,0,0,0,0,0,0,0,0,0,0,0,0,0,0,0,0,0,0,0,0,0,0,0,0,0,0,0,0,0,0,0,0,0,0,0,0,0,0,0,0,0,0,0,0,0,0,0,0,0],"sum_hessian":[3.901857E4,3.0953883E4,8.064687E3,9.257077E3,2.1696805E4,6.794865E3,2.4622117E3,3.8170874E3,1.7879719E4,6.571674E3,2.2319133E2,5.465087E2,1.915703E3,3.3598533E3,4.57234E2,3.2021167E3,1.4677602E4,3.7316084E3,2.8400654E3,3.4951904E1,1.8823943E2,1.6933049E2,3.7717822E2,2.6710161E1,1.8889929E3,1.5569181E3,1.8029353E3,1.6210104E2,2.9513297E2,2.8808774E3,3.2123935E2,7.375689E3,7.3019126E3,3.7161294E3,1.5478931E1,1.9817561E3,8.583092E2,2.2969778E1,1.1982128E1,4.5452393E1,1.4278703E2,1.4983419E0,1.6783215E2,1.0634602E2,2.7083218E2,2.995532E0,2.371463E1,7.735962E2,1.1153967E3,1.5366901E3,2.0227955E1,4.7560623E2,1.327329E3,1.3462413E2,2.7476915E1,1.1964041E2,1.7549255E2,2.4989756E3,3.8190186E2,1.8835025E2,1.3288911E2,4.1292474E2,6.962764E3,6.331918E3,9.699946E2],"tree_param":{"num_deleted":"0","num_feature":"6","num_nodes":"65","size_leaf_vector":"1"}},{"base_weights":[-1.1700051E-2,2.728884E-1,-3.9712974E-1,2.883296E-1,2.6629797E-1,2.810128E-1,3.462293E-1,1.5188268E-1,2.6759088E-1,2.861201E-1,1.893651E-1,3.5073045E-1,-7.118213E-1,-6.872043E-2,2.2601251E-1,2.6279908E-1,2.9674914E-1,2.8220505E-1,4.0455428E-1,4.0979856E-1,1.2124831E-1,4.0512395E-1,2.9471955E-1,-1.0489422E0,3.7270356E-2,-1.9835113E-1,2.6087186E-1,7.641073E-2,3.7547934E-1,2.5945526E-1,3.1093565E-1,5.10511E-1,2.895398E-1,7.7370256E-2,8.984553E-2,-1.4830387E-2,1.3918108E-1,6.721501E-2,2.2188954E-1,-1.2468441E-2,8.260223E-2,1.079538E-1,1.6491336E-1,1.2025336E-1,5.3737465E-2,-3.855725E-1,-1.0174697E-1,-1.6894302E-1,-2.0437669E-2,1.5902832E-1,-2.2159581E-1,1.9350313E-1,-1.05154235E-2,4.8065014E-2,2.0227872E-1,2.0865675E-2,7.807137E-2,1.4937736E-1,8.6585596E-2,1.741772E-1,-2.8167443E-2,1.0937962E-1,8.236587E-2],"categories":[],"categories_nodes":[],"categories_segments":[],"categories_sizes":[],"default_left":[0,0,0,0,0,0,0,0,0,0,0,0,0,0,0,0,0,0,0,0,0,0,0,0,0,0,0,0,0,0,0,0,0,0,0,0,0,0,0,0,0,0,0,0,0,0,0,0,0,0,0,0,0,0,0,0,0,0,0,0,0,0,0],"id":2,"left_children":[1,3,-1,5,7,9,11,13,15,17,19,21,23,25,27,29,31,33,35,37,39,41,43,45,-1,47,49,51,53,55,57,59,61,-1,-1,-1,-1,-1,-1,-1,-1,-1,-1,-1,-1,-1,-1,-1,-1,-1,-1,-1,-1,-1,-1,-1,-1,-1,-1,-1,-1,-1,-1],"loss_changes":[1.3966459E4,3.0510254E0,0E0,3.7926636E0,3.1479492E0,3.7641602E0,5.135315E0,3.9921713E0,2.8999023E0,3.4676514E0,6.4602633E0,2.994873E0,1.4482145E0,2.6976368E0,4.0463524E0,2.8670654E0,4.4761353E0,3.0646362E0,6.6247253E0,6.078989E0,8.356364E0,3.1797256E0,6.1512985E0,1.407485E-1,0E0,2.1000805E0,5.2118835E0,5.874607E0,5.738826E0,2.5280762E0,4.7992706E0,4.145359E0,3.1676025E0,0E0,0E0,0E0,0E0,0E0,0E0,0E0,0E0,0E0,0E0,0E0,0E0,0E0,0E0,0E0,0E0,0E0,0E0,0E0,0E0,0E0,0E0,0E0,0E0,0E0,0E0,0E0,0E0,0E0,0E0],"parents":[2147483647,0,0,1,1,3,3,4,4,5,5,6,6,7,7,8,8,9,9,10,10,11,11,12,12,13,13,14,14,15,15,16,16,17,17,18,18,19,19,20,20,21,21,22,22,23,23,25,25,26,26,27,27,28,28,29,29,30,30,31,31,32,32],"right_children":[2,4,-1,6,8,10,12,14,16,18,20,22,24,26,28,30,32,34,36,38,40,42,44,46,-1,48,50,52,54,56,58,60,62,-1,-1,-1,-1,-1,-1,-1,-1,-1,-1,-1,-1,-1,-1,-1,-1,-1,-1,-1,-1,-1,-1,-1,-1,-1,-1,-1,-1,-1,-1],"split_conditions":[9.9250305E-1,-6.0786575E-1,-3.9712974E-1,1.337246E0,-1.6858467E0,1.5384545E0,1.7167095E0,-6.491491E-1,1.4764686E0,1.6821251E0,-9.7548825E-1,-1.1289493E0,-4.620037E-2,8.735238E-1,5.8869947E-2,8.1938577E-1,-1.5793258E0,-5.6555206E-1,-1.3804821E0,-1.2872808E0,-1.1289493E0,9.890382E-1,2.2251312E-1,-3.9713544E-1,3.7270356E-2,-1.0849037E0,1.1364067E0,-1.0902222E0,5.2698034E-1,-1.7225535E0,-1.3814291E0,1.5300065E0,-1.1494008E0,7.7370256E-2,8.984553E-2,-1.4830387E-2,1.3918108E-1,6.721501E-2,2.2188954E-1,-1.2468441E-2,8.260223E-2,1.079538E-1,1.6491336E-1,1.2025336E-1,5.3737465E-2,-3.855725E-1,-1.0174697E-1,-1.6894302E-1,-2.0437669E-2,1.5902832E-1,-2.2159581E-1,1.9350313E-1,-1.05154235E-2,4.8065014E-2,2.0227872E-1,2.0865675E-2,7.807137E-2,1.4937736E-1,8.6585596E-2,1.741772E-1,-2.8167443E-2,1.0937962E-1,8.236587E-2],"split_indices":[0,5,0,2,2,3,3,1,5,4,2,5,0,4,3,0,2,0,2,2,5,4,1,4,0,0,3,4,4,3,3,1,3,0,0,0,0,0,0,0,0,0,0,0,0,0,0,0,0,0,0,0,0,0,0,0,0,0,0,0,0,0,0],"split_type":[0,0,0,0,0,0,0,0,0,0,0,0,0,0,0,0,0,0,0,0,0,0,0,0,0,0,0,0,0,0,0,0,0,0,0,0,0,0,0,0,0,0,0,0,0,0,0,0,0,0,0,0,0,0,0,0,0,0,0,0,0,0,0],"sum_hessian":[3.740164E4,3.0735805E4,6.665836E3,9.181343E3,2.155446E4,8.156462E3,1.024881E3,2.4217093E2,2.131229E4,7.7239053E3,4.3255682E2,1.0212052E3,3.6758573E0,6.0928032E1,1.8124289E2,1.8312824E4,2.9994666E3,7.480023E3,2.4388228E2,1.00927666E2,3.3162915E2,5.1492065E2,5.0628455E2,2.4381113E0,1.237746E0,4.4014893E1,1.6913141E1,9.133582E1,8.990707E1,1.7129314E4,1.1835084E3,9.558168E1,2.9038848E3,3.1148855E3,4.365137E3,2.8229681E1,2.156526E2,6.564076E1,3.5286903E1,1.6160846E2,1.700207E2,3.9478214E2,1.20138504E2,2.626675E2,2.4361705E2,1.2209058E0,1.2172056E0,1.0704557E1,3.3310337E1,1.3694242E1,3.218899E0,1.4185384E1,7.715044E1,5.315035E1,3.6756718E1,7.067584E1,1.7058639E4,1.23917725E2,1.0595907E3,8.5685905E1,9.895772E0,4.794311E2,2.4244539E3],"tree_param":{"num_deleted":"0","num_feature":"6","num_nodes":"63","size_leaf_vector":"1"}},{"base_weights":[-1.5826827E-2,1.9317758E-1,-3.6526623E-1,2.1143432E-1,1.8875712E-1,2.244403E-1,1.582883E-1,1.1488825E-1,1.9544716E-1,2.1741469E-1,3.351762E-1,3.4475538E-1,1.3554391E-1,1.0186954E-1,4.837958E-1,1.8380494E-1,2.1313354E-1,2.0748866E-1,2.8818324E-1,4.9540788E-1,2.4899794E-1,4.5238686E-1,-1.1906629E-1,-9.5647454E-1,1.4110923E-1,1.15137056E-1,-1.6381057E-1,7.278844E-1,3.2772413E-1,1.8513635E-1,-7.5852685E-2,2.9546383E-1,2.0550174E-1,6.03344E-2,1.1627149E-1,-4.9667463E-2,9.567682E-2,9.4358586E-2,2.3585589E-1,1.3287143E-1,3.9637066E-2,1.6657165E-1,-3.5256587E-2,-2.9108775E-1,3.887361E-2,-9.361834E-3,-4.749091E-1,-1.0366551E-2,5.332108E-2,2.7418388E-2,8.150122E-2,1.0016813E-2,-1.20746695E-1,1.2169735E-1,3.2666653E-1,1.9105013E-1,2.3167005E-2,5.805624E-2,4.837848E-2,-2.2222725E-1,1.2828521E-2,1.7268994E-1,8.240182E-2,7.4171245E-2,5.848779E-2],"categories":[],"categories_nodes":[],"categories_segments":[],"categories_sizes":[],"default_left":[0,0,0,0,0,0,0,0,0,0,0,0,0,0,0,0,0,0,0,0,0,0,0,0,0,0,0,0,0,0,0,0,0,0,0,0,0,0,0,0,0,0,0,0,0,0,0,0,0,0,0,0,0,0,0,0,0,0,0,0,0,0,0,0,0],"id":3,"left_children":[1,3,-1,5,7,9,11,13,15,17,19,21,23,25,27,29,31,33,35,37,39,41,43,45,47,49,51,53,55,57,59,61,63,-1,-1,-1,-1,-1,-1,-1,-1,-1,-1,-1,-1,-1,-1,-1,-1,-1,-1,-1,-1,-1,-1,-1,-1,-1,-1,-1,-1,-1,-1,-1,-1],"loss_changes":[8.981065E3,2.418457E0,0E0,4.062866E0,1.2100769E1,3.6311798E0,4.9116135E0,9.746641E0,4.592285E0,3.0871124E0,3.7733974E0,6.3666325E0,6.4777813E0,6.9679184E0,2.3999138E0,4.7058716E0,5.5455933E0,4.4358673E0,7.703003E0,4.89052E0,4.1457615E0,6.093607E0,5.334239E0,3.0930376E0,6.6928635E0,6.955599E0,4.4461718E0,2.605278E0,3.3629236E0,2.671692E0,5.54791E0,4.237732E0,3.546051E0,0E0,0E0,0E0,0E0,0E0,0E0,0E0,0E0,0E0,0E0,0E0,0E0,0E0,0E0,0E0,0E0,0E0,0E0,0E0,0E0,0E0,0E0,0E0,0E0,0E0,0E0,0E0,0E0,0E0,0E0,0E0,0E0],"parents":[2147483647,0,0,1,1,3,3,4,4,5,5,6,6,7,7,8,8,9,9,10,10,11,11,12,12,13,13,14,14,15,15,16,16,17,17,18,18,19,19,20,20,21,21,22,22,23,23,24,24,25,25,26,26,27,27,28,28,29,29,30,30,31,31,32,32],"right_children":[2,4,-1,6,8,10,12,14,16,18,20,22,24,26,28,30,32,34,36,38,40,42,44,46,48,50,52,54,56,58,60,62,64,-1,-1,-1,-1,-1,-1,-1,-1,-1,-1,-1,-1,-1,-1,-1,-1,-1,-1,-1,-1,-1,-1,-1,-1,-1,-1,-1,-1,-1,-1,-1,-1],"split_conditions":[9.9250305E-1,-1.0529996E0,-3.6526623E-1,1.1045527E0,-8.2227904E-1,-1.093911E0,-1.3533702E0,1.6821251E0,4.1146588E-1,1.5300065E0,-4.341712E-1,-1.1764367E0,-1.3405672E0,1.55807E0,-2.13318E-1,1.7167095E0,5.2698034E-1,9.059444E-1,-1.6955057E0,4.7279787E-1,-2.13318E-1,1.6821251E0,-1.6726679E0,-8.6782135E-2,1.2200671E0,6.4626855E-1,2.606069E-1,-2.193176E-1,-9.450344E-1,3.000341E-1,-1.1289493E0,-6.201272E-1,-9.552548E-1,6.03344E-2,1.1627149E-1,-4.9667463E-2,9.567682E-2,9.4358586E-2,2.3585589E-1,1.3287143E-1,3.9637066E-2,1.6657165E-1,-3.5256587E-2,-2.9108775E-1,3.887361E-2,-9.361834E-3,-4.749091E-1,-1.0366551E-2,5.332108E-2,2.7418388E-2,8.150122E-2,1.0016813E-2,-1.20746695E-1,1.2169735E-1,3.2666653E-1,1.9105013E-1,2.3167005E-2,5.805624E-2,4.837848E-2,-2.2222725E-1,1.2828521E-2,1.7268994E-1,8.240182E-2,7.4171245E-2,5.848779E-2],"split_indices":[0,3,0,4,3,3,2,4,4,1,5,3,2,2,1,3,4,0,3,2,1,4,2,5,4,0,5,0,3,0,5,3,5,0,0,0,0,0,0,0,0,0,0,0,0,0,0,0,0,0,0,0,0,0,0,0,0,0,0,0,0,0,0,0,0],"split_type":[0,0,0,0,0,0,0,0,0,0,0,0,0,0,0,0,0,0,0,0,0,0,0,0,0,0,0,0,0,0,0,0,0,0,0,0,0,0,0,0,0,0,0,0,0,0,0,0,0,0,0,0,0,0,0,0,0,0,0,0,0,0,0,0,0],"sum_hessian":[3.575551E4,3.0458934E4,5.296578E3,5.9282256E3,2.4530707E4,4.760102E3,1.1681233E3,2.03867E3,2.2492037E4,4.478903E3,2.8119965E2,1.2545313E2,1.0426702E3,1.9704105E3,6.825945E1,1.35705205E4,8.921518E3,3.9314126E3,5.4749E2,9.6684654E1,1.8451498E2,1.0184442E2,2.3608711E1,4.4205E0,1.0382498E3,1.877232E3,9.317848E1,2.5193787E1,4.306567E1,1.3501577E4,6.894324E1,7.536457E2,8.167872E3,3.7990625E3,1.3235017E2,3.4458977E1,5.13031E2,6.088975E1,3.5794907E1,6.834083E1,1.1617416E2,8.62962E1,1.5548213E1,4.6810393E0,1.8927671E1,2.2086594E0,2.2118402E0,1.791436E2,8.5910614E2,1.6313751E3,2.458569E2,5.149368E1,4.1684803E1,1.4433955E1,1.0759831E1,1.8587309E1,2.447836E1,9.987148E3,3.5144287E3,9.643055E0,5.9300182E1,5.0220264E1,7.034254E2,1.6426086E3,6.525263E3],"tree_param":{"num_deleted":"0","num_feature":"6","num_nodes":"65","size_leaf_vector":"1"}},{"base_weights":[-1.769944E-2,1.3667682E-1,-3.4525946E-1,1.3612112E-1,2.755367E-1,1.3889405E-1,1.125849E-1,5.185317E-1,2.767199E-2,1.3717824E-1,2.0239954E-1,2.5753397E-1,1.0288985E-1,-1.7245828E-1,7.0183593E-1,5.099744E-1,-1.0195057E-1,7.092595E-2,1.3875249E-1,8.258256E-2,2.758202E-1,8.342489E-2,4.3037823E-1,2.1417052E-2,1.2173625E-1,-3.8227963E-1,2.3705849E-1,4.2817587E-1,9.700841E-1,-1.13805346E-1,7.259912E-1,2.2282745E-1,-3.4892333E-1,2.5466701E-2,-1.2298763E-1,1.1418717E-1,4.1330315E-2,4.0571507E-2,-1.2889005E-1,3.0865807E-2,1.05036624E-1,5.379066E-3,2.2367068E-1,1.5385273E-1,-1.2934618E-1,-1.1757652E-2,3.2236785E-2,3.2892697E-2,8.786245E-2,-1.8447934E-1,1.0668941E-1,-6.5415345E-2,1.797468E-1,3.3843318E-1,1.6373795E-1,2.7517775E-1,-1.2892121E-1,1.0242208E-1,-2.1655507E-1,-1.7586078E-1,6.2521234E-2],"categories":[],"categories_nodes":[],"categories_segments":[],"categories_sizes":[],"default_left":[0,0,0,0,0,0,0,0,0,0,0,0,0,0,0,0,0,0,0,0,0,0,0,0,0,0,0,0,0,0,0,0,0,0,0,0,0,0,0,0,0,0,0,0,0,0,0,0,0,0,0,0,0,0,0,0,0,0,0,0,0],"id":4,"left_children":[1,3,-1,5,7,9,11,13,15,17,19,21,23,25,27,29,31,33,35,37,39,41,43,45,47,49,-1,51,53,-1,55,57,59,-1,-1,-1,-1,-1,-1,-1,-1,-1,-1,-1,-1,-1,-1,-1,-1,-1,-1,-1,-1,-1,-1,-1,-1,-1,-1,-1,-1],"loss_changes":[6.0034844E3,2.2930908E0,0E0,1.947876E0,7.177824E0,2.90448E0,4.4369965E0,7.7513695E0,3.8136609E0,2.7232666E0,6.186468E0,5.9364967E0,4.5711784E0,3.0153542E0,3.094225E0,2.7559743E0,3.9485707E0,4.132531E0,6.04422E0,7.329761E0,5.5820236E0,4.328031E0,7.2795696E0,2.9287214E0,4.974453E0,2.2278285E0,0E0,2.9433136E0,9.500923E-1,0E0,2.7665386E0,2.6498928E0,3.7987838E0,0E0,0E0,0E0,0E0,0E0,0E0,0E0,0E0,0E0,0E0,0E0,0E0,0E0,0E0,0E0,0E0,0E0,0E0,0E0,0E0,0E0,0E0,0E0,0E0,0E0,0E0,0E0,0E0],"parents":[2147483647,0,0,1,1,3,3,4,4,5,5,6,6,7,7,8,8,9,9,10,10,11,11,12,12,13,13,14,14,15,15,16,16,17,17,18,18,19,19,20,20,21,21,22,22,23,23,24,24,25,25,27,27,28,28,30,30,31,31,32,32],"right_children":[2,4,-1,6,8,10,12,14,16,18,20,22,24,26,28,30,32,34,36,38,40,42,44,46,48,50,-1,52,54,-1,56,58,60,-1,-1,-1,-1,-1,-1,-1,-1,-1,-1,-1,-1,-1,-1,-1,-1,-1,-1,-1,-1,-1,-1,-1,-1,-1,-1,-1,-1],"split_conditions":[9.9250305E-1,1.7217429E0,-3.4525946E-1,1.363768E0,2.2251312E-1,1.2833493E0,-1.5176969E0,-8.591933E-1,-9.747078E-1,-1.6456572E0,-2.13318E-1,-1.6042554E0,1.4316938E0,1.3027741E0,-2.193176E-1,-8.4950256E-1,-3.0908537E-1,1.2022322E0,-1.6316446E0,7.328272E-1,-6.2816435E-1,1.43436E0,1.3513159E0,-4.620037E-2,8.1938577E-1,-2.13318E-1,2.3705849E-1,-8.9031947E-1,5.5970997E-1,-1.13805346E-1,1.363768E0,1.3027741E0,1.5300065E0,2.5466701E-2,-1.2298763E-1,1.1418717E-1,4.1330315E-2,4.0571507E-2,-1.2889005E-1,3.0865807E-2,1.05036624E-1,5.379066E-3,2.2367068E-1,1.5385273E-1,-1.2934618E-1,-1.1757652E-2,3.2236785E-2,3.2892697E-2,8.786245E-2,-1.8447934E-1,1.0668941E-1,-6.5415345E-2,1.797468E-1,3.3843318E-1,1.6373795E-1,2.7517775E-1,-1.2892121E-1,1.0242208E-1,-2.1655507E-1,-1.7586078E-1,6.2521234E-2],"split_indices":[0,2,0,3,1,3,0,4,4,2,1,0,3,5,0,3,3,3,2,0,4,2,2,0,0,1,0,3,0,0,3,5,1,0,0,0,0,0,0,0,0,0,0,0,0,0,0,0,0,0,0,0,0,0,0,0,0,0,0,0,0],"split_type":[0,0,0,0,0,0,0,0,0,0,0,0,0,0,0,0,0,0,0,0,0,0,0,0,0,0,0,0,0,0,0,0,0,0,0,0,0,0,0,0,0,0,0,0,0,0,0,0,0,0,0,0,0,0,0,0,0,0,0,0,0],"sum_hessian":[3.43167E4,3.0202902E4,4.113799E3,3.008449E4,1.1841203E2,2.6909277E4,3.1752122E3,5.9241966E1,5.917007E1,2.6204443E4,7.048335E2,1.9745973E2,2.9777524E3,1.2433057E1,4.680891E1,1.1912284E1,4.7257786E1,6.092699E2,2.5595174E4,2.6860886E2,4.3622464E2,9.9108574E1,9.8351166E1,5.598149E2,2.4179375E3,1.0703086E1,1.7299713E0,2.4455853E1,2.235306E1,2.180246E0,9.732038E0,2.0455645E1,2.680214E1,5.928784E2,1.6391453E1,1.0222385E2,2.5492951E4,2.4423726E2,2.4371601E1,1.3181532E2,3.044093E2,9.112245E1,7.9861193E0,9.012893E1,8.222233E0,3.2876456E2,2.3105035E2,2.2598782E3,1.5805927E2,8.264182E0,2.4389038E0,5.0591755E0,1.9396677E1,1.507834E1,7.2747197E0,8.527166E0,1.2048712E0,1.8741714E1,1.7139305E0,1.8762356E1,8.039784E0],"tree_param":{"num_deleted":"0","num_feature":"6","num_nodes":"61","size_leaf_vector":"1"}},{"base_weights":[-1.7822972E-2,9.6545435E-2,-3.3199936E-1,1.17758386E-1,9.384576E-2,1.03990085E-1,2.3754033E-1,7.724511E-2,1.0237457E-1,6.353699E-2,1.3803238E-1,2.789484E-1,-3.0331355E-1,1.3237622E-1,6.759059E-2,5.6405306E-2,1.0850116E-1,4.082487E-2,2.6317334E-1,2.0262505E-1,8.35431E-2,2.54285E-1,8.923025E-1,-5.942737E-1,3.203399E-1,-6.056926E-2,1.6834854E-1,3.1208804E-2,7.971687E-2,7.617951E-2,-2.5236063E-2,2.4022296E-2,1.1123252E-1,2.0023096E-2,-2.7377404E-2,1.6806887E-2,1.5634137E-1,6.7354135E-2,-7.350499E-2,-4.1027002E-2,3.4552705E-2,-6.078201E-2,8.278101E-2,-1.4863016E-2,4.4160232E-1,-4.3042097E-2,-3.2695585E-1,-1.8393295E-2,3.282725E-1,-1.04840524E-1,-4.0948926E-3,7.212911E-2,3.6594328E-2,3.7565308E-3,7.166319E-2,2.7089765E-2,7.6116194E-5,9.291587E-3,4.3016918E-2,5.2937176E-2,-2.6179615E-2,-2.2202473E-2,3.0076373E-2,3.5097666E-2,2.1294637E-2],"categories":[],"categories_nodes":[],"categories_segments":[],"categories_sizes":[],"default_left":[0,0,0,0,0,0,0,0,0,0,0,0,0,0,0,0,0,0,0,0,0,0,0,0,0,0,0,0,0,0,0,0,0,0,0,0,0,0,0,0,0,0,0,0,0,0,0,0,0,0,0,0,0,0,0,0,0,0,0,0,0,0,0,0,0],"id":5,"left_children":[1,3,-1,5,7,9,11,13,15,17,19,21,23,25,27,29,31,33,35,37,39,41,43,45,47,49,51,53,55,57,59,61,63,-1,-1,-1,-1,-1,-1,-1,-1,-1,-1,-1,-1,-1,-1,-1,-1,-1,-1,-1,-1,-1,-1,-1,-1,-1,-1,-1,-1,-1,-1,-1,-1],"loss_changes":[4.127574E3,1.7066956E0,0E0,5.5535965E0,3.7601624E0,4.1714745E0,7.8768044E0,4.800911E0,4.9444427E0,6.287183E0,5.7816753E0,4.6699886E0,4.7672176E0,9.349688E0,3.3910255E0,3.3425827E0,3.5760956E0,4.279544E0,7.5427427E0,7.4347363E0,6.255124E0,3.148241E0,6.687561E0,3.764192E0,2.6289423E0,2.8714194E0,3.762207E0,7.4655123E0,4.850704E0,5.057764E0,5.072639E0,3.6470277E0,3.47464E0,0E0,0E0,0E0,0E0,0E0,0E0,0E0,0E0,0E0,0E0,0E0,0E0,0E0,0E0,0E0,0E0,0E0,0E0,0E0,0E0,0E0,0E0,0E0,0E0,0E0,0E0,0E0,0E0,0E0,0E0,0E0,0E0],"parents":[2147483647,0,0,1,1,3,3,4,4,5,5,6,6,7,7,8,8,9,9,10,10,11,11,12,12,13,13,14,14,15,15,16,16,17,17,18,18,19,19,20,20,21,21,22,22,23,23,24,24,25,25,26,26,27,27,28,28,29,29,30,30,31,31,32,32],"right_children":[2,4,-1,6,8,10,12,14,16,18,20,22,24,26,28,30,32,34,36,38,40,42,44,46,48,50,52,54,56,58,60,62,64,-1,-1,-1,-1,-1,-1,-1,-1,-1,-1,-1,-1,-1,-1,-1,-1,-1,-1,-1,-1,-1,-1,-1,-1,-1,-1,-1,-1,-1,-1,-1,-1],"split_conditions":[9.9250305E-1,-1.3400289E0,-3.3199936E-1,-1.3814291E0,-2.9435423E-1,-4.7899345E-1,8.1938577E-1,-1.2197692E0,-1.327357E0,1.4764686E0,-1.5742738E0,7.328272E-1,-1.3538047E0,-1.6456572E0,-6.491491E-1,4.7315133E-1,-1.6042554E0,9.55385E-1,-1.5468973E0,1.5718582E0,-1.0849802E0,-1.4763384E0,8.691239E-2,4.1146588E-1,1.1290796E0,-1.0849802E0,-6.521107E-1,1.4764639E0,-4.1583207E-1,4.3430144E-1,-8.591933E-1,-1.6610648E-1,1.5300065E0,2.0023096E-2,-2.7377404E-2,1.6806887E-2,1.5634137E-1,6.7354135E-2,-7.350499E-2,-4.1027002E-2,3.4552705E-2,-6.078201E-2,8.278101E-2,-1.4863016E-2,4.4160232E-1,-4.3042097E-2,-3.2695585E-1,-1.8393295E-2,3.282725E-1,-1.04840524E-1,-4.0948926E-3,7.212911E-2,3.6594328E-2,3.7565308E-3,7.166319E-2,2.7089765E-2,7.6116194E-5,9.291587E-3,4.3016918E-2,5.2937176E-2,-2.6179615E-2,-2.2202473E-2,3.0076373E-2,3.5097666E-2,2.1294637E-2],"split_indices":[0,3,0,3,3,0,0,2,2,5,3,0,3,2,1,0,0,5,3,2,1,5,5,4,5,1,0,2,3,5,4,4,1,0,0,0,0,0,0,0,0,0,0,0,0,0,0,0,0,0,0,0,0,0,0,0,0,0,0,0,0,0,0,0,0],"split_type":[0,0,0,0,0,0,0,0,0,0,0,0,0,0,0,0,0,0,0,0,0,0,0,0,0,0,0,0,0,0,0,0,0,0,0,0,0,0,0,0,0,0,0,0,0,0,0,0,0,0,0,0,0,0,0,0,0,0,0,0,0,0,0,0,0],"sum_hessian":[3.314361E4,2.9994043E4,3.1495664E3,3.381439E3,2.6612605E4,3.0345066E3,3.469324E2,9.035589E3,1.7577016E4,1.3879938E3,1.6465128E3,3.227098E2,2.4222595E1,1.3446127E3,7.6909766E3,2.0682976E3,1.5508718E4,1.2472965E3,1.4069724E2,7.5216394E2,8.943489E2,3.1159494E2,1.1114869E1,1.654894E1,7.673656E0,2.1118602E2,1.1334266E3,1.9235208E3,5.7674556E3,1.6650708E3,4.0322678E2,4.8602847E2,1.5022689E4,1.043102E3,2.0419446E2,7.8709335E1,6.1987907E1,7.175745E2,3.4589405E1,1.11877014E2,7.8247186E2,1.3719964E1,2.9787497E2,4.5831575E0,6.5317116E0,9.341248E0,7.2076926E0,5.7559013E0,1.9177548E0,2.8605368E1,1.8258066E2,4.420462E2,6.913804E2,1.7656952E3,1.5782565E2,5.0895312E3,6.7792456E2,9.963545E2,6.687164E2,9.440773E1,3.0881906E2,2.1262874E2,2.7339975E2,1.3140432E4,1.8822573E3],"tree_param":{"num_deleted":"0","num_feature":"6","num_nodes":"65","size_leaf_vector":"1"}},{"base_weights":[-1.6770829E-2,6.809765E-2,-3.228996E-1,7.765499E-2,6.294849E-2,7.212924E-2,1.2974826E-1,6.788863E-2,3.2747973E-2,6.428637E-2,1.0421392E-1,2.6172432E-1,9.233491E-2,5.4549396E-2,8.927836E-2,6.433488E-2,-3.9367452E-2,6.725812E-3,7.283352E-2,2.15739E-2,1.6862635E-1,-3.7139046E-1,2.862509E-1,2.7029455E-1,4.6940517E-2,8.027048E-2,2.7716806E-2,6.771936E-2,1.1431768E-1,-1.4591138E-1,9.876974E-2,-1.0486786E-1,5.9735656E-2,2.1402609E-2,-4.528829E-2,-4.1944303E-2,2.2576617E-2,6.14552E-2,-1.2499336E-3,6.461256E-2,-1.9495137E-2,1.005372E-2,-2.7924886E-1,6.846071E-2,1.7700374E-1,4.181051E-2,1.6583642E-1,-1.1140216E-1,2.0954002E-2,1.9737476E-2,5.3157326E-2,-6.501433E-2,1.0177969E-2,2.9850207E-2,4.415251E-3,4.1270714E-2,2.0024583E-2,-2.701092E-2,-1.2771569E-1,-1.0420411E-3,4.8665483E-2,3.258796E-2,-5.575589E-2,1.3777895E-1,-7.2985766E-3],"categories":[],"categories_nodes":[],"categories_segments":[],"categories_sizes":[],"default_left":[0,0,0,0,0,0,0,0,0,0,0,0,0,0,0,0,0,0,0,0,0,0,0,0,0,0,0,0,0,0,0,0,0,0,0,0,0,0,0,0,0,0,0,0,0,0,0,0,0,0,0,0,0,0,0,0,0,0,0,0,0,0,0,0,0],"id":6,"left_children":[1,3,-1,5,7,9,11,13,15,17,19,21,23,25,27,29,31,33,35,37,39,41,43,45,47,49,51,53,55,57,59,61,63,-1,-1,-1,-1,-1,-1,-1,-1,-1,-1,-1,-1,-1,-1,-1,-1,-1,-1,-1,-1,-1,-1,-1,-1,-1,-1,-1,-1,-1,-1,-1,-1],"loss_changes":[2.8974373E3,1.463211E0,0E0,2.9960442E0,2.8909988E0,2.369175E0,4.913643E0,4.750046E0,6.216938E0,3.7334805E0,9.859955E0,3.5276747E0,6.2940607E0,7.0834503E0,3.446804E0,1.375222E1,5.404331E0,1.0020391E1,3.4138298E0,3.8353417E0,1.138489E1,1.991155E0,3.6155357E0,5.783662E0,5.997306E0,7.343582E0,7.636548E0,5.7950153E0,3.2639084E0,4.1430683E0,1.0581728E1,8.683051E0,1.1146558E1,0E0,0E0,0E0,0E0,0E0,0E0,0E0,0E0,0E0,0E0,0E0,0E0,0E0,0E0,0E0,0E0,0E0,0E0,0E0,0E0,0E0,0E0,0E0,0E0,0E0,0E0,0E0,0E0,0E0,0E0,0E0,0E0],"parents":[2147483647,0,0,1,1,3,3,4,4,5,5,6,6,7,7,8,8,9,9,10,10,11,11,12,12,13,13,14,14,15,15,16,16,17,17,18,18,19,19,20,20,21,21,22,22,23,23,24,24,25,25,26,26,27,27,28,28,29,29,30,30,31,31,32,32],"right_children":[2,4,-1,6,8,10,12,14,16,18,20,22,24,26,28,30,32,34,36,38,40,42,44,46,48,50,52,54,56,58,60,62,64,-1,-1,-1,-1,-1,-1,-1,-1,-1,-1,-1,-1,-1,-1,-1,-1,-1,-1,-1,-1,-1,-1,-1,-1,-1,-1,-1,-1,-1,-1,-1,-1],"split_conditions":[9.9250305E-1,-4.341712E-1,-3.228996E-1,1.3924772E0,1.243109E0,4.7315133E-1,-9.841113E-1,9.55385E-1,1.1290796E0,-1.0849802E0,-1.6610648E-1,-1.7091827E0,1.4623132E0,4.4819962E-2,1.3702935E-1,1.3102381E0,1.5448359E0,-1.3275899E-1,-1.6955057E0,-1.0849802E0,8.7933755E-1,-7.8156024E-1,-6.0786575E-1,6.424948E-1,-8.4950256E-1,-1.8696105E-1,8.58828E-2,6.5834427E-1,1.2691686E-1,1.1094828E0,-4.0278637E-1,1.3238252E0,-1.093911E0,2.1402609E-2,-4.528829E-2,-4.1944303E-2,2.2576617E-2,6.14552E-2,-1.2499336E-3,6.461256E-2,-1.9495137E-2,1.005372E-2,-2.7924886E-1,6.846071E-2,1.7700374E-1,4.181051E-2,1.6583642E-1,-1.1140216E-1,2.0954002E-2,1.9737476E-2,5.3157326E-2,-6.501433E-2,1.0177969E-2,2.9850207E-2,4.415251E-3,4.1270714E-2,2.0024583E-2,-2.701092E-2,-1.2771569E-1,-1.0420411E-3,4.8665483E-2,3.258796E-2,-5.575589E-2,1.3777895E-1,-7.2985766E-3],"split_indices":[0,5,0,2,2,0,3,5,5,1,4,3,2,3,3,2,2,0,3,1,2,5,5,4,3,3,3,1,0,3,3,2,3,0,0,0,0,0,0,0,0,0,0,0,0,0,0,0,0,0,0,0,0,0,0,0,0,0,0,0,0,0,0,0,0],"split_type":[0,0,0,0,0,0,0,0,0,0,0,0,0,0,0,0,0,0,0,0,0,0,0,0,0,0,0,0,0,0,0,0,0,0,0,0,0,0,0,0,0,0,0,0,0,0,0,0,0,0,0,0,0,0,0,0,0,0,0,0,0,0,0,0,0],"sum_hessian":[3.2219375E4,2.983092E4,2.3884543E3,1.0439726E4,1.9391195E4,9.440697E3,9.990288E2,1.6664068E4,2.7271255E3,7.588698E3,1.8519985E3,2.1933307E2,7.7969574E2,1.0265666E4,6.3984033E3,1.8965397E3,8.305857E2,9.81383E2,6.6073154E3,8.1180365E2,1.040195E3,7.652543E0,2.1168053E2,1.5745818E2,6.2223755E2,5.2403755E3,5.0252905E3,3.440132E3,2.958271E3,2.6645132E2,1.6300884E3,5.0003705E2,3.305486E2,6.9651544E2,2.8486758E2,7.376496E1,6.5335503E3,9.911627E1,7.126874E2,8.668113E2,1.7338364E2,4.9848065E0,2.6677365E0,1.7918895E2,3.2491585E1,1.0861305E2,4.8845123E1,3.15164E1,5.907211E2,4.5607305E3,6.7964526E2,1.2366418E2,4.9016265E3,2.1500361E3,1.290096E3,1.9857572E3,9.7251385E2,2.2320177E2,4.324955E1,6.245736E2,1.0055148E3,1.3742181E2,3.6261523E2,5.6684425E1,2.738642E2],"tree_param":{"num_deleted":"0","num_feature":"6","num_nodes":"65","size_leaf_vector":"1"}},{"base_weights":[-1.50551405E-2,4.7972377E-2,-3.165024E-1,3.557288E-2,5.2276835E-2,2.8226934E-2,1.0131687E-1,1.0692787E-1,4.988292E-2,1.0910481E-2,6.373824E-2,1.7972736E-1,-2.566961E-2,1.3716416E-1,-6.856766E-2,5.8324922E-2,4.1412503E-2,6.088199E-2,-1.821737E-2,-9.598577E-2,7.3039845E-2,-7.735483E-2,2.1662909E-1,4.7869217E-2,-3.2459956E-1,7.718967E-2,2.8373742E-1,-7.951309E-1,-1.802634E-2,5.4765098E-2,1.364561E-1,2.2807885E-2,6.011738E-2,7.3689215E-2,8.429448E-3,-4.0723304E-3,-1.2017239E-1,-1.5432131E-1,4.732252E-4,4.21347E-2,1.4490039E-2,2.0729305E-2,-2.7133518E-1,3.448791E-2,1.07238084E-1,3.0816367E-2,-1.410394E-1,-1.3513188E-1,1.0483939E-1,2.913046E-2,-8.438592E-2,1.0399918E-1,-1.0185587E-1,3.286634E-2,-4.0788934E-1,2.5791433E-2,-5.591607E-2,4.2438046E-3,1.8902969E-2,1.1493313E-1,1.8266216E-2,6.161718E-3,1.582569E-1,2.3407742E-2,2.7081156E-3],"categories":[],"categories_nodes":[],"categories_segments":[],"categories_sizes":[],"default_left":[0,0,0,0,0,0,0,0,0,0,0,0,0,0,0,0,0,0,0,0,0,0,0,0,0,0,0,0,0,0,0,0,0,0,0,0,0,0,0,0,0,0,0,0,0,0,0,0,0,0,0,0,0,0,0,0,0,0,0,0,0,0,0,0,0],"id":7,"left_children":[1,3,-1,5,7,9,11,13,15,17,19,21,23,25,27,29,31,33,35,37,39,41,43,45,47,49,51,53,55,57,59,61,63,-1,-1,-1,-1,-1,-1,-1,-1,-1,-1,-1,-1,-1,-1,-1,-1,-1,-1,-1,-1,-1,-1,-1,-1,-1,-1,-1,-1,-1,-1,-1,-1],"loss_changes":[2.0652297E3,1.5837479E0,0E0,3.6958818E0,2.8795242E0,4.236338E0,7.6650615E0,4.9150095E0,1.5083199E0,6.7446E0,3.3622322E0,4.5303135E0,6.491149E0,6.91343E0,4.9995103E0,2.934826E0,3.6697083E0,1.0327589E1,5.1918826E0,5.091808E0,3.5531359E0,7.38571E0,5.9198112E0,6.790386E0,5.1016607E0,4.0333652E0,9.087521E0,4.6721306E0,2.2691019E0,3.3880692E0,8.556685E0,6.047221E0,4.8117313E0,0E0,0E0,0E0,0E0,0E0,0E0,0E0,0E0,0E0,0E0,0E0,0E0,0E0,0E0,0E0,0E0,0E0,0E0,0E0,0E0,0E0,0E0,0E0,0E0,0E0,0E0,0E0,0E0,0E0,0E0,0E0,0E0],"parents":[2147483647,0,0,1,1,3,3,4,4,5,5,6,6,7,7,8,8,9,9,10,10,11,11,12,12,13,13,14,14,15,15,16,16,17,17,18,18,19,19,20,20,21,21,22,22,23,23,24,24,25,25,26,26,27,27,28,28,29,29,30,30,31,31,32,32],"right_children":[2,4,-1,6,8,10,12,14,16,18,20,22,24,26,28,30,32,34,36,38,40,42,44,46,48,50,52,54,56,58,60,62,64,-1,-1,-1,-1,-1,-1,-1,-1,-1,-1,-1,-1,-1,-1,-1,-1,-1,-1,-1,-1,-1,-1,-1,-1,-1,-1,-1,-1,-1,-1,-1,-1],"split_conditions":[9.9250305E-1,-9.9834514E-1,-3.165024E-1,1.4510962E0,-1.5879043E0,5.952282E-1,3.9098588E-1,1.2296628E0,8.691239E-2,-5.126499E-1,-1.5468973E0,-1.6042554E0,1.0285382E0,3.6268258E-1,1.2563865E0,9.059444E-1,9.55385E-1,-1.2038546E0,5.689025E-1,-1.0902222E0,9.06364E-1,1.5300065E0,2.561666E-1,1.5850378E0,1.5311594E0,1.6501632E0,1.4510962E0,1.8043692E-1,5.2698034E-1,-1.0902222E0,-8.632741E-1,1.7217429E0,8.2420903E-1,7.3689215E-2,8.429448E-3,-4.0723304E-3,-1.2017239E-1,-1.5432131E-1,4.732252E-4,4.21347E-2,1.4490039E-2,2.0729305E-2,-2.7133518E-1,3.448791E-2,1.07238084E-1,3.0816367E-2,-1.410394E-1,-1.3513188E-1,1.0483939E-1,2.913046E-2,-8.438592E-2,1.0399918E-1,-1.0185587E-1,3.286634E-2,-4.0788934E-1,2.5791433E-2,-5.591607E-2,4.2438046E-3,1.8902969E-2,1.1493313E-1,1.8266216E-2,6.161718E-3,1.582569E-1,2.3407742E-2,2.7081156E-3],"split_indices":[0,0,0,4,3,2,2,2,5,4,3,0,3,2,2,0,5,3,2,4,2,1,3,2,2,5,4,4,4,4,3,2,2,0,0,0,0,0,0,0,0,0,0,0,0,0,0,0,0,0,0,0,0,0,0,0,0,0,0,0,0,0,0,0,0],"split_type":[0,0,0,0,0,0,0,0,0,0,0,0,0,0,0,0,0,0,0,0,0,0,0,0,0,0,0,0,0,0,0,0,0,0,0,0,0,0,0,0,0,0,0,0,0,0,0,0,0,0,0,0,0,0,0,0,0,0,0,0,0,0,0,0,0],"sum_hessian":[3.1506496E4,2.9707021E4,1.7994739E3,7.657618E3,2.2049404E4,6.8892705E3,7.683475E2,9.2348096E2,2.1125924E4,4.63191E3,2.2573606E3,4.7477332E2,2.9357413E2,7.879438E2,1.3553714E2,1.0577757E4,1.0548166E4,1.7052708E3,2.9266392E3,1.2371132E2,2.1336494E3,5.9457355E1,4.1531595E2,2.3628601E2,5.728812E1,5.602349E2,2.277089E2,7.8569045E0,1.2768023E2,1.011844E4,4.5931717E2,5.289368E3,5.2587974E3,2.5601898E2,1.4492517E3,2.8925508E3,3.408852E1,2.2583801E1,1.0112752E2,5.715769E2,1.5620724E3,5.129168E1,8.165678E0,2.4224779E2,1.7306818E2,2.1438599E2,2.1900019E1,4.855518E1,8.732939E0,5.314445E2,2.879041E1,2.0722992E2,2.0478973E1,3.32849E0,4.5284147E0,7.922909E1,4.845114E1,1.7077418E3,8.410698E3,1.0676601E2,3.5255115E2,5.266734E3,2.2634642E1,3.8935015E3,1.3652959E3],"tree_param":{"num_deleted":"0","num_feature":"6","num_nodes":"65","size_leaf_vector":"1"}},{"base_weights":[-1.30798165E-2,3.3738866E-2,-3.1192222E-1,2.9144032E-2,4.4622876E-2,3.5776403E-2,-2.3873063E-2,9.376378E-2,3.2557007E-2,3.4552656E-2,2.3161925E-1,-7.082502E-2,4.0346153E-2,5.46459E-2,2.1425208E-1,3.8133472E-2,-1.0527444E-1,2.8681515E-2,5.464503E-2,3.0250812E-1,-2.8652763E-1,-8.656424E-2,2.5752035E-1,-2.4207812E-2,1.1663152E-1,-5.1852208E-2,1.1790722E-1,7.7893955E-1,1.4254273E-1,2.7479509E-2,8.870348E-2,-5.723752E-1,-4.867421E-2,1.1866287E-2,1.0455367E-3,5.0824936E-2,1.2033966E-2,1.2857687E-1,-2.1895995E-2,-2.3361394E-1,7.357815E-2,-1.604209E-2,-5.780756E-2,-9.7274035E-2,1.3653177E-1,7.929242E-2,-1.6759373E-2,-3.5078794E-2,4.6379328E-2,1.1726486E-1,-2.3730302E-2,6.853699E-2,1.1867293E-2,2.977326E-1,1.5924409E-1,8.550444E-3,1.1751599E-1,1.9895516E-2,2.8258222E-3,7.659752E-4,3.5419118E-2,-1.2093166E-1,-4.0642026E-1,-9.0261936E-2,3.614312E-3],"categories":[],"categories_nodes":[],"categories_segments":[],"categories_sizes":[],"default_left":[0,0,0,0,0,0,0,0,0,0,0,0,0,0,0,0,0,0,0,0,0,0,0,0,0,0,0,0,0,0,0,0,0,0,0,0,0,0,0,0,0,0,0,0,0,0,0,0,0,0,0,0,0,0,0,0,0,0,0,0,0,0,0,0,0],"id":8,"left_children":[1,3,-1,5,7,9,11,13,15,17,19,21,23,25,27,29,31,33,35,37,39,41,43,45,47,49,51,53,55,57,59,61,63,-1,-1,-1,-1,-1,-1,-1,-1,-1,-1,-1,-1,-1,-1,-1,-1,-1,-1,-1,-1,-1,-1,-1,-1,-1,-1,-1,-1,-1,-1,-1,-1],"loss_changes":[1.4884473E3,1.4797935E0,0E0,7.3243732E0,5.2084713E0,4.428631E0,6.9872475E0,8.152402E0,5.4291196E0,2.1687813E0,4.3026805E0,6.939239E0,4.823613E0,8.824912E0,1.706598E1,3.6528978E0,7.2354736E0,3.900961E0,6.93023E0,4.834404E0,3.9409535E0,4.477704E0,7.2140527E0,4.86525E0,3.9983878E0,5.9240055E0,7.106243E0,1.9934654E0,1.07194395E1,3.9311953E0,2.984829E0,3.3737154E0,3.7728832E0,0E0,0E0,0E0,0E0,0E0,0E0,0E0,0E0,0E0,0E0,0E0,0E0,0E0,0E0,0E0,0E0,0E0,0E0,0E0,0E0,0E0,0E0,0E0,0E0,0E0,0E0,0E0,0E0,0E0,0E0,0E0,0E0],"parents":[2147483647,0,0,1,1,3,3,4,4,5,5,6,6,7,7,8,8,9,9,10,10,11,11,12,12,13,13,14,14,15,15,16,16,17,17,18,18,19,19,20,20,21,21,22,22,23,23,24,24,25,25,26,26,27,27,28,28,29,29,30,30,31,31,32,32],"right_children":[2,4,-1,6,8,10,12,14,16,18,20,22,24,26,28,30,32,34,36,38,40,42,44,46,48,50,52,54,56,58,60,62,64,-1,-1,-1,-1,-1,-1,-1,-1,-1,-1,-1,-1,-1,-1,-1,-1,-1,-1,-1,-1,-1,-1,-1,-1,-1,-1,-1,-1,-1,-1,-1,-1],"split_conditions":[9.9250305E-1,7.0431894E-1,-3.1192222E-1,4.3278497E-1,9.06364E-1,4.1873133E-1,-1.3275899E-1,1.0941753E0,1.594651E0,-6.5534346E-2,6.4626855E-1,1.6501632E0,1.8043692E-1,-4.295381E-1,-1.3126539E0,1.0156926E0,-1.0849802E0,-5.643685E-1,-1.2363659E-2,1.0941753E0,-2.8162095E-1,9.890382E-1,-8.591933E-1,-1.3952087E0,-1.2180672E0,-1.6561688E0,4.5789284E-1,8.691239E-2,6.424948E-1,-8.632741E-1,-9.9834514E-1,1.3355817E0,1.6205801E0,1.1866287E-2,1.0455367E-3,5.0824936E-2,1.2033966E-2,1.2857687E-1,-2.1895995E-2,-2.3361394E-1,7.357815E-2,-1.604209E-2,-5.780756E-2,-9.7274035E-2,1.3653177E-1,7.929242E-2,-1.6759373E-2,-3.5078794E-2,4.6379328E-2,1.1726486E-1,-2.3730302E-2,6.853699E-2,1.1867293E-2,2.977326E-1,1.5924409E-1,8.550444E-3,1.1751599E-1,1.9895516E-2,2.8258222E-3,7.659752E-4,3.5419118E-2,-1.2093166E-1,-4.0642026E-1,-9.0261936E-2,3.614312E-3],"split_indices":[0,2,0,2,2,2,0,1,3,2,0,5,4,3,3,3,1,2,2,1,4,4,4,3,3,3,3,5,4,3,0,4,3,0,0,0,0,0,0,0,0,0,0,0,0,0,0,0,0,0,0,0,0,0,0,0,0,0,0,0,0,0,0,0,0],"split_type":[0,0,0,0,0,0,0,0,0,0,0,0,0,0,0,0,0,0,0,0,0,0,0,0,0,0,0,0,0,0,0,0,0,0,0,0,0,0,0,0,0,0,0,0,0,0,0,0,0,0,0,0,0,0,0,0,0,0,0,0,0,0,0,0,0],"sum_hessian":[3.0964424E4,2.961487E4,1.3495558E3,2.0826396E4,8.788473E3,1.8511016E4,2.31538E3,1.7311621E3,7.05731E3,1.8397234E4,1.13781006E2,1.3374445E3,9.7793536E2,1.3079689E3,4.2319327E2,6.783579E3,2.7373074E2,1.4238938E4,4.1582964E3,1.0045386E2,1.3327151E1,1.2769694E3,6.047509E1,5.300667E2,4.4786868E2,4.874854E2,8.2048346E2,4.657422E1,3.7661905E2,5.6044014E3,1.1791777E3,2.8599236E1,2.4513152E2,9.946321E3,4.2926177E3,4.6613452E2,3.6921619E3,7.509686E1,2.5356989E1,6.680148E0,6.6470027E0,9.745945E2,3.0237485E2,1.5169438E1,4.5305653E1,5.1683197E1,4.783835E2,6.233237E1,3.855363E2,2.7489782E1,4.5999564E2,3.3951703E2,4.8096643E2,2.342134E1,2.3152878E1,2.5913486E2,1.1748421E2,1.778025E3,3.8263765E3,2.9999747E2,8.791803E2,2.4757906E1,3.8413284E0,4.6800034E1,1.9833148E2],"tree_param":{"num_deleted":"0","num_feature":"6","num_nodes":"65","size_leaf_vector":"1"}},{"base_weights":[-1.1030861E-2,2.3747183E-2,-3.0859083E-1,2.1828035E-2,4.1622672E-2,2.4745345E-2,-4.2926155E-2,2.5377908E-1,3.263601E-2,2.2421865E-2,7.860374E-2,-9.154896E-2,6.7464985E-2,3.1700543E-1,-3.5235015E-1,-3.8662097E-1,3.6384758E-2,1.8859956E-2,4.27943E-2,8.907465E-2,-3.0061573E-1,3.3783026E-3,-1.6041563E-1,5.3800136E-1,1.472448E-2,-1.9183478E-1,3.905722E-1,1.672332E-1,-6.275064E-1,2.5724456E-1,-5.4580826E-1,4.0077366E-2,-3.641163E-1,2.7653838E-3,8.371086E-3,2.389415E-3,2.3031961E-2,4.3439772E-2,5.698195E-3,-2.073543E-1,5.500647E-2,-2.2762276E-2,4.25276E-2,-5.2986655E-2,8.499603E-2,2.9172122E-2,2.0217559E-1,2.2659604E-1,-2.352522E-3,-2.4256417E-1,7.114329E-2,1.4879656E-1,3.2232672E-2,-2.8694993E-2,-3.248436E-1,-2.58572E-1,9.048441E-2,2.5501218E-2,3.3608756E-3,-2.0600793E-1,-1.4205357E-2],"categories":[],"categories_nodes":[],"categories_segments":[],"categories_sizes":[],"default_left":[0,0,0,0,0,0,0,0,0,0,0,0,0,0,0,0,0,0,0,0,0,0,0,0,0,0,0,0,0,0,0,0,0,0,0,0,0,0,0,0,0,0,0,0,0,0,0,0,0,0,0,0,0,0,0,0,0,0,0,0,0],"id":9,"left_children":[1,3,-1,5,7,9,11,13,15,17,19,21,23,25,27,29,31,33,35,37,39,41,43,45,47,49,51,-1,53,-1,55,57,59,-1,-1,-1,-1,-1,-1,-1,-1,-1,-1,-1,-1,-1,-1,-1,-1,-1,-1,-1,-1,-1,-1,-1,-1,-1,-1,-1,-1],"loss_changes":[1.0814783E3,1.0127926E0,0E0,5.0423155E0,5.451707E0,3.193843E0,6.1831665E0,4.565946E0,4.333914E0,1.7757053E0,4.2187095E0,5.226097E0,8.738996E0,4.0345078E0,3.216726E0,5.309046E0,4.04471E0,1.8169856E0,4.310285E0,4.01221E0,5.5318136E0,3.7072937E0,3.381692E0,2.0609598E0,5.3199725E0,3.9039207E0,2.714799E0,0E0,2.1396368E0,0E0,6.2286696E0,3.5030012E0,2.5214863E0,0E0,0E0,0E0,0E0,0E0,0E0,0E0,0E0,0E0,0E0,0E0,0E0,0E0,0E0,0E0,0E0,0E0,0E0,0E0,0E0,0E0,0E0,0E0,0E0,0E0,0E0,0E0,0E0],"parents":[2147483647,0,0,1,1,3,3,4,4,5,5,6,6,7,7,8,8,9,9,10,10,11,11,12,12,13,13,14,14,15,15,16,16,17,17,18,18,19,19,20,20,21,21,22,22,23,23,24,24,25,25,26,26,28,28,30,30,31,31,32,32],"right_children":[2,4,-1,6,8,10,12,14,16,18,20,22,24,26,28,30,32,34,36,38,40,42,44,46,48,50,52,-1,54,-1,56,58,60,-1,-1,-1,-1,-1,-1,-1,-1,-1,-1,-1,-1,-1,-1,-1,-1,-1,-1,-1,-1,-1,-1,-1,-1,-1,-1,-1,-1],"split_conditions":[9.9250305E-1,1.3924772E0,-3.0859083E-1,1.2563865E0,1.4073598E0,1.1362267E0,7.580093E-1,1.4764686E0,-1.7091827E0,1.3027741E0,1.6491469E0,-6.2816435E-1,-1.3026439E0,-1.0849802E0,-1.1714624E0,1.4213774E0,1.7035892E0,-3.9243484E-1,-9.447466E-3,1.2032725E0,6.492246E-2,6.5834427E-1,1.6346515E0,9.890382E-1,-1.6042554E0,-5.126499E-1,1.0941753E0,1.672332E-1,6.492246E-2,2.5724456E-1,1.6403545E0,-2.6047668E-1,1.5718582E0,2.7653838E-3,8.371086E-3,2.389415E-3,2.3031961E-2,4.3439772E-2,5.698195E-3,-2.073543E-1,5.500647E-2,-2.2762276E-2,4.25276E-2,-5.2986655E-2,8.499603E-2,2.9172122E-2,2.0217559E-1,2.2659604E-1,-2.352522E-3,-2.4256417E-1,7.114329E-2,1.4879656E-1,3.2232672E-2,-2.8694993E-2,-3.248436E-1,-2.58572E-1,9.048441E-2,2.5501218E-2,3.3608756E-3,-2.0600793E-1,-1.4205357E-2],"split_indices":[0,2,0,2,2,2,4,5,3,5,3,4,5,1,0,2,3,0,3,2,4,1,3,4,0,4,1,0,4,0,2,5,2,0,0,0,0,0,0,0,0,0,0,0,0,0,0,0,0,0,0,0,0,0,0,0,0,0,0,0,0],"split_type":[0,0,0,0,0,0,0,0,0,0,0,0,0,0,0,0,0,0,0,0,0,0,0,0,0,0,0,0,0,0,0,0,0,0,0,0,0,0,0,0,0,0,0,0,0,0,0,0,0,0,0,0,0,0,0,0,0,0,0,0,0],"sum_hessian":[3.0556896E4,2.954803E4,1.00886743E3,2.6685266E4,2.862764E3,2.5535457E4,1.1498076E3,1.15228134E2,2.7475356E3,2.448076E4,1.0546971E3,7.983415E2,3.514662E2,1.04775795E2,1.0452336E1,2.3444025E1,2.7240918E3,2.0839174E4,3.641587E3,1.0271022E3,2.7594969E1,3.3606018E2,4.622813E2,3.4496544E1,3.1696967E2,1.3031693E1,9.17441E1,2.1888998E0,8.263436E0,2.1618457E0,2.1282179E1,2.700097E3,2.3994865E1,1.0086909E4,1.0752265E4,1.7988926E3,1.8426942E3,5.7156036E2,4.5554187E2,1.5034196E1,1.2560773E1,2.139687E2,1.2209146E2,4.465731E2,1.5708204E1,8.534799E0,2.5961744E1,8.412439E0,3.0855722E2,4.983072E0,8.048621E0,6.6305214E1,2.5438889E1,4.369439E0,3.8939974E0,1.5487919E1,5.7942605E0,1.0556432E3,1.6444536E3,1.1309768E1,1.2685097E1],"tree_param":{"num_deleted":"0","num_feature":"6","num_nodes":"61","size_leaf_vector":"1"}},{"base_weights":[-9.134076E-3,1.6695846E-2,-3.0612764E-1,2.0074679E-2,7.0448685E-3,1.6556323E-2,5.7534732E-2,-4.4209108E-2,1.44068645E-2,1.8706726E-2,-3.7043814E-2,-1.4931174E-2,1.1231399E-1,9.675802E-1,-4.953951E-2,2.7402513E-2,-2.7708968E-2,1.6696937E-2,1.1561454E-1,-2.934138E-1,-9.7660385E-3,7.705136E-2,-9.159444E-2,-3.1891772E-1,1.2953684E-1,3.6539906E-1,8.526771E-2,-8.650031E-2,7.611329E-2,9.11735E-3,7.886345E-2,-3.6515543E-1,-1.6318372E-2,6.0747503E-3,-1.3682231E-2,-1.8781021E-2,4.83947E-2,7.846918E-2,-1.4396696E-1,-2.108432E-2,2.794841E-2,1.3644542E-2,1.5202148E-1,-1.526458E-1,-1.3482462E-2,2.0215719E-3,-2.3294349E-1,1.0837383E-1,2.8408436E-2,-5.8114515E-3,-7.3365055E-2,3.7340965E-2,-1.352215E-1,5.8948502E-2,1.0076662E-3,5.992092E-3,4.2020667E-2,-1.714791E-1,4.2018652E-2,-1.8636475E-3,-7.5445436E-2],"categories":[],"categories_nodes":[],"categories_segments":[],"categories_sizes":[],"default_left":[0,0,0,0,0,0,0,0,0,0,0,0,0,0,0,0,0,0,0,0,0,0,0,0,0,0,0,0,0,0,0,0,0,0,0,0,0,0,0,0,0,0,0,0,0,0,0,0,0,0,0,0,0,0,0,0,0,0,0,0,0],"id":10,"left_children":[1,3,-1,5,7,9,11,13,15,17,19,21,23,25,27,29,31,33,35,37,39,41,43,45,47,-1,-1,49,51,53,55,57,59,-1,-1,-1,-1,-1,-1,-1,-1,-1,-1,-1,-1,-1,-1,-1,-1,-1,-1,-1,-1,-1,-1,-1,-1,-1,-1,-1,-1],"loss_changes":[7.902517E2,9.618168E-1,0E0,2.8787565E0,2.8877056E0,2.3030362E0,7.4469647E0,5.232049E0,3.6629233E0,3.738531E0,5.3875256E0,5.707042E0,7.9752254E0,5.2417755E-1,4.4517503E0,4.811185E0,6.0605464E0,4.1652794E0,3.1868482E0,7.7933187E0,4.352356E0,4.968725E0,8.567455E0,6.161442E0,8.264526E0,0E0,0E0,7.847035E0,5.61212E0,4.0717616E0,4.8289833E0,5.450281E0,3.6294763E0,0E0,0E0,0E0,0E0,0E0,0E0,0E0,0E0,0E0,0E0,0E0,0E0,0E0,0E0,0E0,0E0,0E0,0E0,0E0,0E0,0E0,0E0,0E0,0E0,0E0,0E0,0E0,0E0],"parents":[2147483647,0,0,1,1,3,3,4,4,5,5,6,6,7,7,8,8,9,9,10,10,11,11,12,12,13,13,14,14,15,15,16,16,17,17,18,18,19,19,20,20,21,21,22,22,23,23,24,24,27,27,28,28,29,29,30,30,31,31,32,32],"right_children":[2,4,-1,6,8,10,12,14,16,18,20,22,24,26,28,30,32,34,36,38,40,42,44,46,48,-1,-1,50,52,54,56,58,60,-1,-1,-1,-1,-1,-1,-1,-1,-1,-1,-1,-1,-1,-1,-1,-1,-1,-1,-1,-1,-1,-1,-1,-1,-1,-1,-1,-1],"split_conditions":[9.9250305E-1,3.000341E-1,-3.0612764E-1,1.2691686E-1,3.8659272E-1,1.594651E0,-2.4094903E-1,-1.7225535E0,9.06364E-1,1.5251492E0,-1.3026439E0,-1.03388526E-1,-1.5923783E0,6.07996E-1,9.335269E-1,2.021792E-1,9.337403E-1,1.3505383E0,-9.4889945E-1,-8.6539936E-1,-5.6555206E-1,-2.1389398E-1,-1.3212512E0,-1.6456572E0,1.6757658E-2,3.6539906E-1,8.526771E-2,1.5020788E-1,1.6621035E0,-1.6288229E0,2.2251312E-1,7.018462E-1,1.594651E0,6.0747503E-3,-1.3682231E-2,-1.8781021E-2,4.83947E-2,7.846918E-2,-1.4396696E-1,-2.108432E-2,2.794841E-2,1.3644542E-2,1.5202148E-1,-1.526458E-1,-1.3482462E-2,2.0215719E-3,-2.3294349E-1,1.0837383E-1,2.8408436E-2,-5.8114515E-3,-7.3365055E-2,3.7340965E-2,-1.352215E-1,5.8948502E-2,1.0076662E-3,5.992092E-3,4.2020667E-2,-1.714791E-1,4.2018652E-2,-1.8636475E-3,-7.5445436E-2],"split_indices":[0,0,0,0,0,3,3,3,2,3,5,2,2,5,3,2,2,3,2,2,0,2,4,2,3,0,0,3,3,3,1,3,3,0,0,0,0,0,0,0,0,0,0,0,0,0,0,0,0,0,0,0,0,0,0,0,0,0,0,0,0],"split_type":[0,0,0,0,0,0,0,0,0,0,0,0,0,0,0,0,0,0,0,0,0,0,0,0,0,0,0,0,0,0,0,0,0,0,0,0,0,0,0,0,0,0,0,0,0,0,0,0,0,0,0,0,0,0,0,0,0,0,0,0,0],"sum_hessian":[3.0251182E4,2.9498723E4,7.5245886E2,2.1848445E4,7.6502773E3,1.9973883E4,1.8745629E3,9.6022406E2,6.690053E3,1.9204078E4,7.698043E2,8.073156E2,1.0672472E3,4.0861764E0,9.561379E2,5.1127617E3,1.5772914E3,1.8815041E4,3.8903607E2,7.309212E1,6.967122E2,3.669885E2,4.4032715E2,4.0314774E1,1.0269325E3,2.4177926E0,1.6683841E0,7.3905597E2,2.170819E2,3.7732302E3,1.3395316E3,5.048926E1,1.5268021E3,1.7800818E4,1.01422314E3,7.932544E1,3.0971066E2,1.8281439E1,5.481068E1,4.3895227E2,2.5775995E2,3.4290103E2,2.4087456E1,4.328808E1,3.9703906E2,2.4127766E1,1.618701E1,1.3301016E2,8.939223E2,5.195213E2,2.1953464E2,1.995318E2,1.7550095E1,1.1151343E2,3.6617168E3,6.833559E2,6.5617566E2,3.5749817E1,1.4739447E1,1.4648759E3,6.192623E1],"tree_param":{"num_deleted":"0","num_feature":"6","num_nodes":"61","size_leaf_vector":"1"}},{"base_weights":[-7.432213E-3,1.1748782E-2,-3.0426824E-1,1.1070269E-2,6.8173744E-2,1.1531778E-2,-1.0691176E-1,-1.0812602E-1,2.1731654E-1,7.5009307E-3,2.1098794E-2,-3.078705E-2,-1.5131462E0,-8.677789E-2,-3.6658102E-1,9.197323E-1,1.5994352E-1,1.2491881E-2,-3.2296274E-2,3.025799E-2,-1.5469612E-2,-1.60308E-1,4.102886E-1,-1.4148752E-1,-5.038994E-1,-4.7927007E-1,-2.6417905E-2,3.4272498E-1,4.5901078E-1,4.8961142E-1,3.895447E-2,3.5054225E-3,4.321593E-2,-1.1972525E-2,3.8699683E-2,3.0054958E-3,1.4880993E-2,7.975735E-2,-7.837437E-3,-7.6876014E-2,1.8780752E-1,1.8261662E-1,-1.5047038E-1,1.6576258E-2,-2.229007E-1,8.588697E-2,-5.3206608E-2,2.512278E-1,-7.8915745E-2,1.7071453E-1,-8.841002E-2,-7.5630784E-2,5.9793115E-2],"categories":[],"categories_nodes":[],"categories_segments":[],"categories_sizes":[],"default_left":[0,0,0,0,0,0,0,0,0,0,0,0,0,0,0,0,0,0,0,0,0,0,0,0,0,0,0,0,0,0,0,0,0,0,0,0,0,0,0,0,0,0,0,0,0,0,0,0,0,0,0,0,0],"id":11,"left_children":[1,3,-1,5,7,9,11,13,15,17,19,21,23,25,-1,27,29,31,33,35,37,39,41,-1,-1,43,45,-1,47,49,51,-1,-1,-1,-1,-1,-1,-1,-1,-1,-1,-1,-1,-1,-1,-1,-1,-1,-1,-1,-1,-1,-1],"loss_changes":[5.798059E2,1.1272469E0,0E0,1.5864964E0,9.223527E0,1.118242E0,1.2107725E1,3.7225552E0,7.504899E0,4.053613E0,2.8797588E0,6.2773337E0,2.1545315E-1,3.7556944E0,0E0,9.250326E-1,7.0308104E0,1.9238312E0,2.7974668E0,2.691351E0,5.170404E0,6.555732E0,4.8219557E0,0E0,0E0,3.021618E0,6.6077466E0,0E0,1.9348711E0,3.118761E0,6.135614E0,0E0,0E0,0E0,0E0,0E0,0E0,0E0,0E0,0E0,0E0,0E0,0E0,0E0,0E0,0E0,0E0,0E0,0E0,0E0,0E0,0E0,0E0],"parents":[2147483647,0,0,1,1,3,3,4,4,5,5,6,6,7,7,8,8,9,9,10,10,11,11,12,12,13,13,15,15,16,16,17,17,18,18,19,19,20,20,21,21,22,22,25,25,26,26,28,28,29,29,30,30],"right_children":[2,4,-1,6,8,10,12,14,16,18,20,22,24,26,-1,28,30,32,34,36,38,40,42,-1,-1,44,46,-1,48,50,52,-1,-1,-1,-1,-1,-1,-1,-1,-1,-1,-1,-1,-1,-1,-1,-1,-1,-1,-1,-1,-1,-1],"split_conditions":[9.9250305E-1,1.6899396E0,-3.0426824E-1,1.6756067E0,-5.0592013E-2,7.0431894E-1,1.6821251E0,1.6947029E0,-1.5176969E0,4.3278497E-1,1.1290796E0,1.0941753E0,-8.938723E-1,-1.3138448E0,-3.6658102E-1,1.7167095E0,-7.963527E-1,4.1873133E-1,1.6501632E0,-6.3644245E-2,7.4403733E-1,1.4764686E0,1.3027741E0,-1.4148752E-1,-5.038994E-1,-2.13318E-1,-3.6109406E-1,3.4272498E-1,7.580093E-1,1.4764686E0,-5.6555206E-1,3.5054225E-3,4.321593E-2,-1.1972525E-2,3.8699683E-2,3.0054958E-3,1.4880993E-2,7.975735E-2,-7.837437E-3,-7.6876014E-2,1.8780752E-1,1.8261662E-1,-1.5047038E-1,1.6576258E-2,-2.229007E-1,8.588697E-2,-5.3206608E-2,2.512278E-1,-7.8915745E-2,1.7071453E-1,-8.841002E-2,-7.5630784E-2,5.9793115E-2],"split_indices":[0,3,0,3,4,2,4,2,0,2,5,1,2,2,0,3,2,2,5,3,2,5,5,0,0,1,2,0,4,5,0,0,0,0,0,0,0,0,0,0,0,0,0,0,0,0,0,0,0,0,0,0,0],"split_type":[0,0,0,0,0,0,0,0,0,0,0,0,0,0,0,0,0,0,0,0,0,0,0,0,0,0,0,0,0,0,0,0,0,0,0,0,0,0,0,0,0,0,0,0,0,0,0,0,0,0,0,0,0],"sum_hessian":[3.0022506E4,2.9462193E4,5.603117E2,2.91133E4,3.4889294E2,2.9000762E4,1.12539474E2,1.6001561E2,1.8887735E2,2.0405252E4,8.595509E3,1.0772956E2,4.8099093E0,1.5806395E2,1.9516612E0,1.3127472E1,1.7574988E2,1.8132012E4,2.2732417E3,6.873974E3,1.7215343E3,8.376786E1,2.3961704E1,1.1912539E0,3.6186557E0,2.0143057E1,1.3792088E2,7.852454E0,5.275018E0,4.6366062E1,1.2938382E2,1.802253E4,1.09481064E2,2.1715122E3,1.0172945E2,3.3600762E3,3.513898E3,6.194907E1,1.6595852E3,7.525914E1,8.508717E0,1.995224E1,4.009465E0,6.9161367E0,1.322692E1,4.460754E1,9.331335E1,3.3562984E0,1.9187196E0,4.23511E1,4.0149612E0,4.5757904E1,8.362591E1],"tree_param":{"num_deleted":"0","num_feature":"6","num_nodes":"53","size_leaf_vector":"1"}},{"base_weights":[-5.9885485E-3,8.251957E-3,-3.0282253E-1,7.90785E-3,9.692632E-2,1.0911843E-2,5.934122E-4,2.8506097E-1,-8.640814E-2,8.1112925E-3,7.09006E-2,-2.30172E-3,8.907527E-2,-2.3036435E-1,4.333757E-1,3.157906E-1,-1.7406714E-1,1.2440791E-2,-2.2125363E-2,-1.0218156E-2,1.2897797E-1,-6.196609E-4,-3.5606185E-1,2.809808E-1,-7.695173E-2,-4.0495428E-1,1.8704143E-1,2.0857887E-1,6.684819E-1,6.919439E-1,-3.9273557E-1,-9.506338E-2,-6.1628056E-1,-4.4436925E-4,6.6201766E-3,9.144868E-3,-1.6200703E-2,5.0314856E-3,-2.0494013E-1,3.3719484E-2,2.3317538E-1,-2.3455678E-3,1.5167804E-2,2.7628412E-2,-1.9932209E-1,1.20318145E-1,-3.0535871E-2,-7.116343E-2,4.623664E-2,-1.8797804E-1,1.960879E-2,1.4022812E-1,-5.9171353E-2,1.19047984E-1,2.9401708E-1,3.5172933E-1,3.2120828E-2,-2.0862333E-1,3.1367958E-2,-1.0864193E-1,3.989095E-2,-3.163703E-1,1.4470431E-1],"categories":[],"categories_nodes":[],"categories_segments":[],"categories_sizes":[],"default_left":[0,0,0,0,0,0,0,0,0,0,0,0,0,0,0,0,0,0,0,0,0,0,0,0,0,0,0,0,0,0,0,0,0,0,0,0,0,0,0,0,0,0,0,0,0,0,0,0,0,0,0,0,0,0,0,0,0,0,0,0,0,0,0],"id":12,"left_children":[1,3,-1,5,7,9,11,13,15,17,19,21,23,25,27,29,31,33,35,37,39,41,43,45,47,49,-1,51,53,55,57,59,61,-1,-1,-1,-1,-1,-1,-1,-1,-1,-1,-1,-1,-1,-1,-1,-1,-1,-1,-1,-1,-1,-1,-1,-1,-1,-1,-1,-1,-1,-1],"loss_changes":[4.2659735E2,8.9746284E-1,0E0,6.44326E-1,3.9464078E0,3.4917085E0,2.1874218E0,4.407459E0,2.1122916E0,2.600294E0,4.3687053E0,4.9200373E0,8.641623E0,2.2268248E0,2.1915607E0,3.1494498E0,1.6377826E0,2.328514E0,4.174042E0,7.0530725E0,5.7200336E0,3.032809E0,5.4682035E0,5.818671E0,5.4372168E0,1.2503719E0,0E0,2.6133041E0,1.397399E0,1.958312E0,7.323436E-1,2.6290865E0,3.964727E0,0E0,0E0,0E0,0E0,0E0,0E0,0E0,0E0,0E0,0E0,0E0,0E0,0E0,0E0,0E0,0E0,0E0,0E0,0E0,0E0,0E0,0E0,0E0,0E0,0E0,0E0,0E0,0E0,0E0,0E0],"parents":[2147483647,0,0,1,1,3,3,4,4,5,5,6,6,7,7,8,8,9,9,10,10,11,11,12,12,13,13,14,14,15,15,16,16,17,17,18,18,19,19,20,20,21,21,22,22,23,23,24,24,25,25,27,27,28,28,29,29,30,30,31,31,32,32],"right_children":[2,4,-1,6,8,10,12,14,16,18,20,22,24,26,28,30,32,34,36,38,40,42,44,46,48,50,-1,52,54,56,58,60,62,-1,-1,-1,-1,-1,-1,-1,-1,-1,-1,-1,-1,-1,-1,-1,-1,-1,-1,-1,-1,-1,-1,-1,-1,-1,-1,-1,-1,-1,-1],"split_conditions":[9.9250305E-1,1.7217429E0,-3.0282253E-1,2.1347548E-1,2.2251312E-1,1.2691686E-1,1.6205801E0,-8.591933E-1,-1.0902222E0,1.5300065E0,-2.953555E-1,1.6070708E0,-8.6782135E-2,1.3027741E0,-2.193176E-1,3.000341E-1,1.3027741E0,-3.2233948E-1,-4.0278637E-1,-3.477149E-1,1.6491469E0,1.5300065E0,-1.6610648E-1,1.0941753E0,4.1146588E-1,6.6099954E-1,1.8704143E-1,-7.386693E-1,6.424948E-1,4.3430144E-1,6.4626855E-1,6.492246E-2,4.0358245E-2,-4.4436925E-4,6.6201766E-3,9.144868E-3,-1.6200703E-2,5.0314856E-3,-2.0494013E-1,3.3719484E-2,2.3317538E-1,-2.3455678E-3,1.5167804E-2,2.7628412E-2,-1.9932209E-1,1.20318145E-1,-3.0535871E-2,-7.116343E-2,4.623664E-2,-1.8797804E-1,1.960879E-2,1.4022812E-1,-5.9171353E-2,1.19047984E-1,2.9401708E-1,3.5172933E-1,3.2120828E-2,-2.0862333E-1,3.1367958E-2,-1.0864193E-1,3.989095E-2,-3.163703E-1,1.4470431E-1],"split_indices":[0,2,0,0,1,0,3,4,4,1,2,3,5,5,0,0,5,3,3,2,3,1,4,1,4,3,0,0,4,5,0,4,0,0,0,0,0,0,0,0,0,0,0,0,0,0,0,0,0,0,0,0,0,0,0,0,0,0,0,0,0,0,0],"split_type":[0,0,0,0,0,0,0,0,0,0,0,0,0,0,0,0,0,0,0,0,0,0,0,0,0,0,0,0,0,0,0,0,0,0,0,0,0,0,0,0,0,0,0,0,0,0,0,0,0,0,0,0,0,0,0,0,0,0,0,0,0,0,0],"sum_hessian":[2.9852938E4,2.9436172E4,4.1676553E2,2.9323469E4,1.1270248E2,2.0786213E4,8.537257E3,5.534921E1,5.7353268E1,1.9860184E4,9.260293E2,8.267711E3,2.6954602E2,1.2244329E1,4.3104877E1,9.797536E0,4.7555733E1,1.737316E4,2.487024E3,3.8671487E2,5.3931445E2,8.229582E3,3.8128277E1,1.2470776E2,1.4483827E2,1.0602154E1,1.6421751E0,2.3000303E1,2.0104574E1,6.4151607E0,3.3823752E0,4.137826E1,6.177473E0,7.1023765E3,1.0270783E4,9.383911E2,1.5486327E3,3.7273984E2,1.3975038E1,5.2700946E2,1.2304975E1,7.21549E3,1.0140919E3,1.5826691E1,2.2301584E1,9.48912E1,2.9816566E1,8.5508125E1,5.933014E1,6.9803505E0,3.6218035E0,1.3950335E1,9.04997E0,1.1954942E1,8.149632E0,2.9703593E0,3.444801E0,1.8549724E0,1.527403E0,1.8786772E1,2.259149E1,4.4444914E0,1.7329819E0],"tree_param":{"num_deleted":"0","num_feature":"6","num_nodes":"63","size_leaf_vector":"1"}},{"base_weights":[-4.743981E-3,5.8278176E-3,-3.0164808E-1,7.501675E-3,-8.335629E-3,6.458084E-3,5.4604657E-2,-1.9605458E-3,-1.9568688E-1,7.8195995E-3,-3.0014494E-2,2.0993577E-1,-3.043479E-4,1.2305531E-1,-1.0247025E-2,-4.8503557E-1,-2.8735378E-3,6.163788E-3,5.7277195E-2,-4.3777782E-1,-1.6410701E-2,2.7538157E-1,-1.7232464E-1,2.9512802E-1,-3.1184772E-2,3.5318777E-1,-7.1456847E-3,-5.7088852E-2,1.3564966E-2,-7.0310324E-1,-1.3549948E-1,5.525476E-1,-2.5024116E-1,2.1613205E-3,-1.95686E-2,8.537998E-3,9.227047E-2,-4.0904683E-1,-8.675799E-2,-3.6844943E-2,8.973467E-3,-4.4495016E-2,1.1347797E-1,1.7983866E-1,-1.767089E-1,1.3885836E-1,-1.2224322E-1,-4.651797E-2,2.5477065E-2,-1.9994749E-2,1.5037233E-1,-2.6895678E-2,1.1662449E-1,-1.4584118E-2,-1.6638534E-1,-3.4102645E-2,8.073003E-3,-2.5590372E-1,1.293177E-1,2.8313673E-1,-8.351325E-2,-2.9622603E-2,2.4440846E-1,-1.9894376E-1,1.3344458E-2],"categories":[],"categories_nodes":[],"categories_segments":[],"categories_sizes":[],"default_left":[0,0,0,0,0,0,0,0,0,0,0,0,0,0,0,0,0,0,0,0,0,0,0,0,0,0,0,0,0,0,0,0,0,0,0,0,0,0,0,0,0,0,0,0,0,0,0,0,0,0,0,0,0,0,0,0,0,0,0,0,0,0,0,0,0],"id":13,"left_children":[1,3,-1,5,7,9,11,13,15,17,19,21,23,25,27,29,31,33,35,37,39,41,43,45,47,49,51,53,55,57,59,61,63,-1,-1,-1,-1,-1,-1,-1,-1,-1,-1,-1,-1,-1,-1,-1,-1,-1,-1,-1,-1,-1,-1,-1,-1,-1,-1,-1,-1,-1,-1,-1,-1],"loss_changes":[3.1452075E2,6.974999E-1,0E0,1.2929283E0,3.713802E0,1.2784544E0,4.86278E0,3.1177824E0,5.707263E0,2.0318036E0,5.132314E0,3.7726603E0,3.8612316E0,5.608328E0,3.1487684E0,3.0231848E0,8.713116E0,1.7843828E0,5.7884884E0,3.7146807E0,4.428109E0,5.614744E0,7.5513353E0,4.9088573E0,5.524363E0,4.236622E0,3.9697595E0,3.9846306E0,3.181655E0,4.6106815E0,2.877596E0,3.4170508E0,5.3679276E0,0E0,0E0,0E0,0E0,0E0,0E0,0E0,0E0,0E0,0E0,0E0,0E0,0E0,0E0,0E0,0E0,0E0,0E0,0E0,0E0,0E0,0E0,0E0,0E0,0E0,0E0,0E0,0E0,0E0,0E0,0E0,0E0],"parents":[2147483647,0,0,1,1,3,3,4,4,5,5,6,6,7,7,8,8,9,9,10,10,11,11,12,12,13,13,14,14,15,15,16,16,17,17,18,18,19,19,20,20,21,21,22,22,23,23,24,24,25,25,26,26,27,27,28,28,29,29,30,30,31,31,32,32],"right_children":[2,4,-1,6,8,10,12,14,16,18,20,22,24,26,28,30,32,34,36,38,40,42,44,46,48,50,52,54,56,58,60,62,64,-1,-1,-1,-1,-1,-1,-1,-1,-1,-1,-1,-1,-1,-1,-1,-1,-1,-1,-1,-1,-1,-1,-1,-1,-1,-1,-1,-1,-1,-1,-1,-1],"split_conditions":[9.9250305E-1,1.363768E0,-3.0164808E-1,1.2964406E0,1.6821251E0,1.1890321E0,-9.9834514E-1,-1.5176969E0,-5.6555206E-1,1.0954641E0,-1.6042554E0,1.5300065E0,-1.4339218E0,1.4976605E0,1.4842049E0,6.5834427E-1,-4.620037E-2,1.0546639E0,1.4510962E0,1.2022322E0,-6.2816435E-1,-1.0300193E0,-5.239448E-1,1.3027741E0,1.10084295E-1,1.3907193E0,1.6899396E0,1.6684994E0,-1.4205697E0,1.7035892E0,-1.3026439E0,-6.0786575E-1,-2.13318E-1,2.1613205E-3,-1.95686E-2,8.537998E-3,9.227047E-2,-4.0904683E-1,-8.675799E-2,-3.6844943E-2,8.973467E-3,-4.4495016E-2,1.1347797E-1,1.7983866E-1,-1.767089E-1,1.3885836E-1,-1.2224322E-1,-4.651797E-2,2.5477065E-2,-1.9994749E-2,1.5037233E-1,-2.6895678E-2,1.1662449E-1,-1.4584118E-2,-1.6638534E-1,-3.4102645E-2,8.073003E-3,-2.5590372E-1,1.293177E-1,2.8313673E-1,-8.351325E-2,-2.9622603E-2,2.4440846E-1,-1.9894376E-1,1.3344458E-2],"split_indices":[0,3,0,3,4,3,0,0,0,3,0,1,2,3,3,1,0,3,4,3,4,2,2,5,2,3,3,2,2,3,5,5,1,0,0,0,0,0,0,0,0,0,0,0,0,0,0,0,0,0,0,0,0,0,0,0,0,0,0,0,0,0,0,0,0],"split_type":[0,0,0,0,0,0,0,0,0,0,0,0,0,0,0,0,0,0,0,0,0,0,0,0,0,0,0,0,0,0,0,0,0,0,0,0,0,0,0,0,0,0,0,0,0,0,0,0,0,0,0,0,0,0,0,0,0,0,0,0,0,0,0,0,0],"sum_hessian":[2.9727086E4,2.9417318E4,3.0976688E2,2.63086E4,3.1087195E3,2.5739465E4,5.69134E2,3.007396E3,1.013235E2,2.481395E4,9.255152E2,1.4790495E2,4.2122903E2,1.8608792E2,2.821308E3,3.9912518E1,6.1410984E1,2.4011193E4,8.027561E2,2.8873499E1,8.9664166E2,1.265229E2,2.1382053E1,3.905297E1,3.8217606E2,6.662119E1,1.1946672E2,9.5037585E2,1.8709321E3,2.3955616E1,1.59569025E1,1.854275E1,4.2868237E1,2.3667121E4,3.44072E2,7.208723E2,8.1883766E1,2.8625731E0,2.6010925E1,2.7144968E2,6.25192E2,2.463274E1,1.0189016E2,7.3431315E0,1.4038921E1,3.1802074E1,7.2508965E0,1.8474136E2,1.974347E2,1.7511995E1,4.91092E1,9.950323E1,1.9963497E1,9.3553723E2,1.4838647E1,1.7688412E2,1.694048E3,2.1377867E1,2.577749E0,1.2101291E0,1.4746774E1,5.500475E0,1.3042274E1,1.7333727E1,2.553451E1],"tree_param":{"num_deleted":"0","num_feature":"6","num_nodes":"65","size_leaf_vector":"1"}},{"base_weights":[-3.7354669E-3,4.112759E-3,-3.006328E-1,3.4914396E-3,4.411721E-2,4.074338E-3,-1.3959363E-1,1.2833552E-1,-3.6657505E-2,-5.7218056E-2,4.5603015E-3,-1.9362682E-1,6.43841E-1,-1.0714781E-1,2.0199987E-1,-5.8738053E-2,4.8756894E-1,-6.459831E-1,-7.760133E-3,3.3079626E-3,3.5219193E-2,-1.8812263E-2,-3.6173993E-1,-3.5692668E-3,7.632771E-1,1.998272E-2,-6.518292E-1,8.251462E-2,3.1203145E-1,3.6543828E-2,-1.8686557E-1,-2.600188E-1,9.449812E-1,1.8155524E-1,-2.6526195E-1,-1.5086538E-1,1.5580127E-2,1.3062777E-3,-7.44709E-2,1.6538065E-2,-2.8841227E-2,1.7033447E-1,-5.6468718E-2,-1.5834989E-1,4.5879923E-2,2.9118404E-2,2.767772E-1,-1.1811002E-1,1.2400565E-1,-3.9531922E-1,-6.0865164E-2,7.18551E-2,-2.9392136E-2,1.15230836E-1,1.4276245E-2,8.374193E-2,-3.8731586E-2,-8.159335E-2,1.08289205E-1,-2.3306543E-1,1.0600419E-1,3.8389662E-1,9.105298E-2],"categories":[],"categories_nodes":[],"categories_segments":[],"categories_sizes":[],"default_left":[0,0,0,0,0,0,0,0,0,0,0,0,0,0,0,0,0,0,0,0,0,0,0,0,0,0,0,0,0,0,0,0,0,0,0,0,0,0,0,0,0,0,0,0,0,0,0,0,0,0,0,0,0,0,0,0,0,0,0,0,0,0,0],"id":14,"left_children":[1,3,-1,5,7,9,11,13,15,17,19,21,23,25,27,29,31,33,35,37,39,41,43,-1,45,47,49,51,53,55,57,59,61,-1,-1,-1,-1,-1,-1,-1,-1,-1,-1,-1,-1,-1,-1,-1,-1,-1,-1,-1,-1,-1,-1,-1,-1,-1,-1,-1,-1,-1,-1],"loss_changes":[2.3220029E2,7.306952E-1,0E0,2.4155536E0,3.0632634E0,8.592488E-1,5.0989227E0,3.8437302E0,2.694111E0,6.6028833E0,1.0984821E0,3.246355E0,6.209662E-1,3.6937923E0,2.1853337E0,2.7153406E0,3.4651263E0,5.772899E0,6.243304E0,7.2364435E0,2.9414067E0,5.604566E0,4.8997765E0,0E0,6.1353993E-1,7.333707E0,2.748671E0,2.346702E0,1.6435328E0,5.182837E0,4.5176897E0,1.6561162E0,9.1189003E-1,0E0,0E0,0E0,0E0,0E0,0E0,0E0,0E0,0E0,0E0,0E0,0E0,0E0,0E0,0E0,0E0,0E0,0E0,0E0,0E0,0E0,0E0,0E0,0E0,0E0,0E0,0E0,0E0,0E0,0E0],"parents":[2147483647,0,0,1,1,3,3,4,4,5,5,6,6,7,7,8,8,9,9,10,10,11,11,12,12,13,13,14,14,15,15,16,16,17,17,18,18,19,19,20,20,21,21,22,22,24,24,25,25,26,26,27,27,28,28,29,29,30,30,31,31,32,32],"right_children":[2,4,-1,6,8,10,12,14,16,18,20,22,24,26,28,30,32,34,36,38,40,42,44,-1,46,48,50,52,54,56,58,60,62,-1,-1,-1,-1,-1,-1,-1,-1,-1,-1,-1,-1,-1,-1,-1,-1,-1,-1,-1,-1,-1,-1,-1,-1,-1,-1,-1,-1,-1,-1],"split_conditions":[9.9250305E-1,1.6817653E0,-3.006328E-1,1.6684994E0,2.2251312E-1,-1.7091827E0,8.1938577E-1,-8.9031947E-1,1.6501632E0,-1.4367657E0,1.5311594E0,-1.3234153E-1,-7.4367887E-1,-1.0529996E0,-5.0592013E-2,-1.3275899E-1,-9.117865E-1,-1.3026439E0,-1.3026439E0,1.5175976E0,1.5300065E0,-1.0849037E0,1.0941753E0,-3.5692668E-3,-4.341712E-1,1.7078687E0,-1.01083E0,1.7078687E0,-2.13318E-1,-2.8129596E-1,1.2156976E0,-5.0242957E-2,5.2698034E-1,1.8155524E-1,-2.6526195E-1,-1.5086538E-1,1.5580127E-2,1.3062777E-3,-7.44709E-2,1.6538065E-2,-2.8841227E-2,1.7033447E-1,-5.6468718E-2,-1.5834989E-1,4.5879923E-2,2.9118404E-2,2.767772E-1,-1.1811002E-1,1.2400565E-1,-3.9531922E-1,-6.0865164E-2,7.18551E-2,-2.9392136E-2,1.15230836E-1,1.4276245E-2,8.374193E-2,-3.8731586E-2,-8.159335E-2,1.08289205E-1,-2.3306543E-1,1.0600419E-1,3.8389662E-1,9.105298E-2],"split_indices":[0,2,0,2,1,3,0,3,5,4,2,3,4,3,4,0,0,5,5,2,1,0,1,0,5,2,3,2,1,3,3,3,4,0,0,0,0,0,0,0,0,0,0,0,0,0,0,0,0,0,0,0,0,0,0,0,0,0,0,0,0,0,0],"split_type":[0,0,0,0,0,0,0,0,0,0,0,0,0,0,0,0,0,0,0,0,0,0,0,0,0,0,0,0,0,0,0,0,0,0,0,0,0,0,0,0,0,0,0,0,0,0,0,0,0,0,0,0,0,0,0,0,0,0,0,0,0,0,0],"sum_hessian":[2.9633004E4,2.9402863E4,2.301403E2,2.8954254E4,4.4860892E2,2.8837748E4,1.16507324E2,2.193347E2,2.2927422E2,2.2592657E2,2.861182E4,1.0969458E2,6.812744E0,5.215522E1,1.6717947E2,2.2085951E2,8.414705E0,1.6573101E1,2.0935347E2,2.749003E4,1.1217913E3,5.432056E1,5.5374023E1,1.1884108E0,5.6243334E0,4.306663E1,9.088589E0,8.098565E1,8.619383E1,1.27075066E2,9.378445E1,3.357994E0,5.056711E0,2.4044323E0,1.4168669E1,2.1725908E1,1.8762756E2,2.7377137E4,1.128923E2,9.746578E2,1.4713348E2,1.1645935E1,4.2674625E1,4.1844563E1,1.3529461E1,1.3959619E0,4.2283716E0,2.0990917E1,2.2075714E1,2.8806596E0,6.207929E0,4.3135826E1,3.7849823E1,6.737817E1,1.8815668E1,5.128386E1,7.579121E1,8.160899E1,1.2175455E1,1.6776742E0,1.68032E0,2.669224E0,2.3874872E0],"tree_param":{"num_deleted":"0","num_feature":"6","num_nodes":"63","size_leaf_vector":"1"}},{"base_weights":[-2.911377E-3,2.9155342E-3,-2.9968265E-1,3.2251757E-3,-7.546593E-2,2.7206517E-3,1.3043799E-1,-1.914744E-1,2.5852346E-1,1.0086977E-2,-9.92625E-4,9.242908E-1,8.4620334E-2,-9.997038E-2,-6.383869E-1,2.7285612E-1,1.0840351E-1,-8.345261E-3,2.4988657E-2,1.8829667E-3,-3.891742E-2,-1.3872551E-2,3.478429E-1,-5.760364E-1,1.2977041E-1,-2.4367508E-1,3.860084E-1,-1.1047648E0,3.156054E-1,-2.7547216E-1,2.3644401E-1,1.2414719E-2,-1.0922697E-2,2.7879676E-2,3.6242618E-3,-1.3057656E-2,1.2937094E-3,-2.7967168E-2,2.0324111E-2,-2.8067353E-1,1.6137177E-1,1.1100271E-1,-3.556418E-3,4.735452E-2,-1.4258833E-1,-1.309994E-1,1.662274E-1,-6.665957E-2,-5.512334E-1,2.9984245E-1,-6.844725E-2,-7.075453E-2,1.5875597E-1],"categories":[],"categories_nodes":[],"categories_segments":[],"categories_sizes":[],"default_left":[0,0,0,0,0,0,0,0,0,0,0,0,0,0,0,0,0,0,0,0,0,0,0,0,0,0,0,0,0,0,0,0,0,0,0,0,0,0,0,0,0,0,0,0,0,0,0,0,0,0,0,0,0],"id":15,"left_children":[1,3,-1,5,7,9,11,13,15,17,19,21,23,25,27,-1,29,31,33,35,37,-1,-1,39,41,43,45,47,49,-1,51,-1,-1,-1,-1,-1,-1,-1,-1,-1,-1,-1,-1,-1,-1,-1,-1,-1,-1,-1,-1,-1,-1],"loss_changes":[1.7158954E2,7.1363175E-1,0E0,1.8788244E0,4.5324426E0,7.977477E-1,4.1278934E0,3.471441E0,2.8579798E0,2.6849492E0,2.1147764E0,1.4709101E0,3.3687544E0,5.188175E0,6.802831E0,0E0,3.597984E0,6.100466E0,4.7391243E0,1.9886464E0,7.9230843E0,0E0,0E0,3.4061615E0,3.5490756E0,5.3675723E0,2.5973284E0,6.035716E0,2.288508E0,0E0,3.3964143E0,0E0,0E0,0E0,0E0,0E0,0E0,0E0,0E0,0E0,0E0,0E0,0E0,0E0,0E0,0E0,0E0,0E0,0E0,0E0,0E0,0E0,0E0],"parents":[2147483647,0,0,1,1,3,3,4,4,5,5,6,6,7,7,8,8,9,9,10,10,11,11,12,12,13,13,14,14,16,16,17,17,18,18,19,19,20,20,23,23,24,24,25,25,26,26,27,27,28,28,30,30],"right_children":[2,4,-1,6,8,10,12,14,16,18,20,22,24,26,28,-1,30,32,34,36,38,-1,-1,40,42,44,46,48,50,-1,52,-1,-1,-1,-1,-1,-1,-1,-1,-1,-1,-1,-1,-1,-1,-1,-1,-1,-1,-1,-1,-1,-1],"split_conditions":[9.9250305E-1,1.7167095E0,-2.9968265E-1,1.7035892E0,8.735238E-1,-5.126499E-1,-1.5793258E0,4.7315133E-1,-1.139283E0,-1.8727899E-1,1.4581585E0,-6.491491E-1,-1.4077352E0,-4.620037E-2,1.7445688E-1,2.7285612E-1,-9.077868E-1,-4.8384726E-1,1.2431693E-1,-3.9713544E-1,6.07996E-1,-1.3872551E-2,3.478429E-1,1.5300065E0,-3.352785E-1,-3.477149E-1,-1.2197692E0,8.691239E-2,8.3741456E-1,-2.7547216E-1,-2.6047668E-1,1.2414719E-2,-1.0922697E-2,2.7879676E-2,3.6242618E-3,-1.3057656E-2,1.2937094E-3,-2.7967168E-2,2.0324111E-2,-2.8067353E-1,1.6137177E-1,1.1100271E-1,-3.556418E-3,4.735452E-2,-1.4258833E-1,-1.309994E-1,1.662274E-1,-6.665957E-2,-5.512334E-1,2.9984245E-1,-6.844725E-2,-7.075453E-2,1.5875597E-1],"split_indices":[0,3,0,3,4,4,2,0,2,2,3,1,2,0,2,0,2,3,2,4,5,0,0,1,2,2,2,5,2,0,5,0,0,0,0,0,0,0,0,0,0,0,0,0,0,0,0,0,0,0,0,0,0],"split_type":[0,0,0,0,0,0,0,0,0,0,0,0,0,0,0,0,0,0,0,0,0,0,0,0,0,0,0,0,0,0,0,0,0,0,0,0,0,0,0,0,0,0,0,0,0,0,0,0,0,0,0,0,0],"sum_hessian":[2.9563617E4,2.9392664E4,1.7095389E2,2.927796E4,1.1470199E2,2.9163322E4,1.14639854E2,8.544877E1,2.925322E1,9.773376E3,1.9389945E4,5.209253E0,1.09430595E2,7.194246E1,1.3506312E1,4.533785E0,2.4719435E1,4.3693115E3,5.404064E3,1.8024234E4,1.3657109E3,1.172815E0,4.036438E0,6.2480474E0,1.0318255E2,5.5908745E1,1.6033714E1,8.965371E0,4.540942E0,2.0567427E0,2.2662691E1,1.5760852E3,2.7932263E3,8.617599E2,4.542304E3,9.144833E2,1.7109752E4,9.0504694E2,4.6066394E2,4.8445225E0,1.4035248E0,3.7670135E1,6.551241E1,2.056932E1,3.5339424E1,2.4490511E0,1.3584663E1,4.657881E0,4.30749E0,1.640136E0,2.900806E0,8.746304E0,1.39163885E1],"tree_param":{"num_deleted":"0","num_feature":"6","num_nodes":"53","size_leaf_vector":"1"}},{"base_weights":[-2.2628717E-3,2.0645931E-3,-2.987118E-1,-6.5170936E-3,5.1002586E-3,6.331442E-4,-1.5518874E-1,5.154437E-2,3.301732E-3,-1.1756573E-2,3.453877E-2,-1.355393E-1,-8.893809E-1,3.3572826E-1,2.4083091E-2,-7.493531E-2,4.597729E-3,-8.497658E-3,-2.0994048E-1,2.9241553E-2,3.0539086E-1,-9.947791E-2,-5.621714E-1,-4.2417735E-1,1.8346062E-1,1.6437452E-2,5.3723556E-1,2.4627037E-3,4.349506E-1,4.0204552E-1,-1.3354827E-1,4.0702056E-2,1.7487757E-3,-3.6666172E-3,3.006916E-2,-4.8135985E-3,-1.5331301E-1,2.1836877E-2,-2.6069256E-3,-1.3528687E-1,1.5497154E-1,-3.4329515E-2,2.4093983E-1,-2.3553744E-1,1.7710942E-1,-1.3648477E-1,1.9206622E-1,-4.1782983E-2,2.585992E-1,2.233573E-1,2.090017E-2,-5.360112E-2,1.8588305E-2,1.7250668E-1,-1.3222271E-1,3.7076384E-1,3.7092507E-2,9.773084E-3,-7.122545E-2,2.8699214E-2,-1.4364424E-2,-1.2126051E-2,1.6947422E-3],"categories":[],"categories_nodes":[],"categories_segments":[],"categories_sizes":[],"default_left":[0,0,0,0,0,0,0,0,0,0,0,0,0,0,0,0,0,0,0,0,0,0,0,0,0,0,0,0,0,0,0,0,0,0,0,0,0,0,0,0,0,0,0,0,0,0,0,0,0,0,0,0,0,0,0,0,0,0,0,0,0,0,0],"id":16,"left_children":[1,3,-1,5,7,9,11,13,15,17,19,21,23,25,27,29,31,33,35,37,39,41,43,-1,45,47,49,51,53,55,57,59,61,-1,-1,-1,-1,-1,-1,-1,-1,-1,-1,-1,-1,-1,-1,-1,-1,-1,-1,-1,-1,-1,-1,-1,-1,-1,-1,-1,-1,-1,-1],"loss_changes":[1.2687626E2,7.6554245E-1,0E0,8.16299E0,1.8130397E0,3.0785382E0,4.9628353E0,6.306864E0,2.119383E0,3.4647083E0,2.8050067E0,5.242033E0,5.3269014E0,4.5738153E0,6.563217E0,9.576108E0,2.1146429E0,2.1399233E0,5.0586824E0,3.179985E0,6.225198E0,4.3940353E0,7.304785E0,0E0,1.411634E0,3.8844233E0,4.1773767E0,7.5876694E0,4.783945E0,8.558052E0,5.2548E0,7.325246E0,3.134554E0,0E0,0E0,0E0,0E0,0E0,0E0,0E0,0E0,0E0,0E0,0E0,0E0,0E0,0E0,0E0,0E0,0E0,0E0,0E0,0E0,0E0,0E0,0E0,0E0,0E0,0E0,0E0,0E0,0E0,0E0],"parents":[2147483647,0,0,1,1,3,3,4,4,5,5,6,6,7,7,8,8,9,9,10,10,11,11,12,12,13,13,14,14,15,15,16,16,17,17,18,18,19,19,20,20,21,21,22,22,24,24,25,25,26,26,27,27,28,28,29,29,30,30,31,31,32,32],"right_children":[2,4,-1,6,8,10,12,14,16,18,20,22,24,26,28,30,32,34,36,38,40,42,44,-1,46,48,50,52,54,56,58,60,62,-1,-1,-1,-1,-1,-1,-1,-1,-1,-1,-1,-1,-1,-1,-1,-1,-1,-1,-1,-1,-1,-1,-1,-1,-1,-1,-1,-1,-1,-1],"split_conditions":[9.9250305E-1,-8.2227904E-1,-2.987118E-1,-8.632741E-1,-7.2743624E-1,8.112375E-1,9.059444E-1,-1.4205697E0,-6.887046E-1,7.698667E-1,-8.767236E-1,1.4623132E0,4.3430144E-1,-1.6047379E0,1.5988406E0,-1.3026439E0,-5.107325E-1,9.059444E-1,-1.2038546E0,-5.0592013E-2,-9.9834514E-1,1.4213774E0,1.3027741E0,-4.2417735E-1,-9.62658E-1,-7.4105144E-1,-7.5447E-1,-8.591933E-1,1.3355817E0,-7.4367887E-1,-6.521107E-1,4.1873133E-1,-3.2233948E-1,-3.6666172E-3,3.006916E-2,-4.8135985E-3,-1.5331301E-1,2.1836877E-2,-2.6069256E-3,-1.3528687E-1,1.5497154E-1,-3.4329515E-2,2.4093983E-1,-2.3553744E-1,1.7710942E-1,-1.3648477E-1,1.9206622E-1,-4.1782983E-2,2.585992E-1,2.233573E-1,2.090017E-2,-5.360112E-2,1.8588305E-2,1.7250668E-1,-1.3222271E-1,3.7076384E-1,3.7092507E-2,9.773084E-3,-7.122545E-2,2.8699214E-2,-1.4364424E-2,-1.2126051E-2,1.6947422E-3],"split_indices":[0,3,0,3,3,2,0,2,3,2,3,2,5,2,2,5,3,0,3,4,0,2,5,0,2,3,3,4,4,4,0,2,3,0,0,0,0,0,0,0,0,0,0,0,0,0,0,0,0,0,0,0,0,0,0,0,0,0,0,0,0,0,0],"split_type":[0,0,0,0,0,0,0,0,0,0,0,0,0,0,0,0,0,0,0,0,0,0,0,0,0,0,0,0,0,0,0,0,0,0,0,0,0,0,0,0,0,0,0,0,0,0,0,0,0,0,0,0,0,0,0,0,0,0,0,0,0,0,0],"sum_hessian":[2.9510873E4,2.9383873E4,1.2699903E2,7.6778364E3,2.1706037E4,7.3264717E3,3.5136475E2,8.081885E2,2.089785E4,5.366215E3,1.9602568E3,3.4335986E2,8.004856E0,7.022608E1,7.379624E2,3.3960617E2,2.0558242E4,5.280427E3,8.578788E1,1.9237411E3,3.651578E1,3.1773618E2,2.5623705E1,5.162724E0,2.8421319E0,2.7590374E1,4.263571E1,7.0202686E2,3.593558E1,3.6523743E1,3.0308243E2,1.5026108E3,1.905563E4,5.106399E3,1.7402808E2,5.2824707E1,3.2963173E1,8.951368E2,1.0286042E3,7.722423E0,2.879336E1,3.1341693E2,4.319247E0,2.1737467E1,3.886238E0,1.187015E0,1.6551168E0,2.4005014E1,3.5853586E0,2.9129358E1,1.3506354E1,1.7308728E2,5.289396E2,3.1276152E1,4.6594305E0,8.28139E0,2.8242353E1,1.1686296E2,1.8621947E2,9.272283E2,5.753826E2,1.612514E3,1.7443117E4],"tree_param":{"num_deleted":"0","num_feature":"6","num_nodes":"63","size_leaf_vector":"1"}},{"base_weights":[-1.7089732E-3,1.5065698E-3,-2.9763544E-1,8.180592E-3,-1.8720148E-3,4.9092025E-3,1.4529262E-1,-6.9204845E-2,1.4593595E-3,3.6051066E-3,1.7059006E-1,7.2288714E-2,4.4240203E-1,8.785595E-2,-1.068006E-1,-2.2062468E-3,2.6274439E-2,-3.0106348E-3,3.0599795E-2,4.3917928E-2,6.5370834E-1,3.8702396E-1,-2.8103853E-2,6.555451E-1,3.6862087E-2,4.4287454E-2,8.5101604E-1,-1.5442303E-1,-1.8524578E-2,2.704889E-3,-3.4173217E-2,7.682317E-3,1.4834051E-1,-7.374507E-3,3.0163617E-3,1.98124E-2,-8.619788E-3,-2.4671573E-3,1.9740416E-1,2.8220484E-1,4.9963757E-2,1.6606519E-1,-8.5934244E-2,-2.7241448E-2,1.0010628E-1,2.2430289E-1,-6.550463E-2,-1.7609611E-1,8.95944E-2,3.3258117E-4,1.8683764E-1,3.8622096E-2,3.6555323E-1,-1.7888585E-1,-3.4599476E-2,-1.0708133E-1,9.4787385E-3,-7.913922E-5,2.376214E-2,-1.8677188E-2,5.7172426E-3,8.3437696E-2,-7.7659864E-4,-6.1903745E-2,6.487959E-2],"categories":[],"categories_nodes":[],"categories_segments":[],"categories_sizes":[],"default_left":[0,0,0,0,0,0,0,0,0,0,0,0,0,0,0,0,0,0,0,0,0,0,0,0,0,0,0,0,0,0,0,0,0,0,0,0,0,0,0,0,0,0,0,0,0,0,0,0,0,0,0,0,0,0,0,0,0,0,0,0,0,0,0,0,0],"id":17,"left_children":[1,3,-1,5,7,9,11,13,15,17,19,21,23,25,27,29,31,33,35,37,39,41,43,45,47,49,51,53,55,57,59,61,63,-1,-1,-1,-1,-1,-1,-1,-1,-1,-1,-1,-1,-1,-1,-1,-1,-1,-1,-1,-1,-1,-1,-1,-1,-1,-1,-1,-1,-1,-1,-1,-1],"loss_changes":[9.3859665E1,6.6243404E-1,0E0,4.4280486E0,4.375196E0,2.0832162E0,4.957869E0,5.4391046E0,1.6906896E0,1.7092372E0,4.579401E0,5.8838162E0,3.881256E0,5.8856764E0,3.1180983E0,2.542592E0,5.4278727E0,2.1667752E0,3.963326E0,1.9499574E0,2.0200486E0,5.2073245E0,3.2481697E0,2.5429363E0,2.8904433E0,4.2353144E0,2.3823137E0,8.258617E0,4.443129E0,3.188455E0,3.22543E0,5.770185E0,7.661178E0,0E0,0E0,0E0,0E0,0E0,0E0,0E0,0E0,0E0,0E0,0E0,0E0,0E0,0E0,0E0,0E0,0E0,0E0,0E0,0E0,0E0,0E0,0E0,0E0,0E0,0E0,0E0,0E0,0E0,0E0,0E0,0E0],"parents":[2147483647,0,0,1,1,3,3,4,4,5,5,6,6,7,7,8,8,9,9,10,10,11,11,12,12,13,13,14,14,15,15,16,16,17,17,18,18,19,19,20,20,21,21,22,22,23,23,24,24,25,25,26,26,27,27,28,28,29,29,30,30,31,31,32,32],"right_children":[2,4,-1,6,8,10,12,14,16,18,20,22,24,26,28,30,32,34,36,38,40,42,44,46,48,50,52,54,56,58,60,62,64,-1,-1,-1,-1,-1,-1,-1,-1,-1,-1,-1,-1,-1,-1,-1,-1,-1,-1,-1,-1,-1,-1,-1,-1,-1,-1,-1,-1,-1,-1,-1,-1],"split_conditions":[9.9250305E-1,-5.643685E-1,-2.9763544E-1,-5.928792E-1,-4.5516297E-1,1.7035892E0,1.1045527E0,-1.1714624E0,6.4626855E-1,1.1290796E0,1.1045527E0,-9.747078E-1,6.5834427E-1,1.5384545E0,5.264018E-1,1.3355817E0,1.3355817E0,-2.13318E-1,6.5834427E-1,8.1938577E-1,2.606069E-1,9.7419316E-1,1.5300065E0,1.3772235E0,1.0941753E0,1.5666106E0,-5.126499E-1,-9.9834514E-1,-1.0849802E0,1.2200671E0,6.07996E-1,-1.5522802E0,-1.17045715E-1,-7.374507E-3,3.0163617E-3,1.98124E-2,-8.619788E-3,-2.4671573E-3,1.9740416E-1,2.8220484E-1,4.9963757E-2,1.6606519E-1,-8.5934244E-2,-2.7241448E-2,1.0010628E-1,2.2430289E-1,-6.550463E-2,-1.7609611E-1,8.95944E-2,3.3258117E-4,1.8683764E-1,3.8622096E-2,3.6555323E-1,-1.7888585E-1,-3.4599476E-2,-1.0708133E-1,9.4787385E-3,-7.913922E-5,2.376214E-2,-1.8677188E-2,5.7172426E-3,8.3437696E-2,-7.7659864E-4,-6.1903745E-2,6.487959E-2],"split_indices":[0,2,0,2,2,3,4,0,0,5,4,4,1,3,3,4,4,1,1,0,5,3,1,3,1,4,4,0,1,4,5,4,2,0,0,0,0,0,0,0,0,0,0,0,0,0,0,0,0,0,0,0,0,0,0,0,0,0,0,0,0,0,0,0,0],"split_type":[0,0,0,0,0,0,0,0,0,0,0,0,0,0,0,0,0,0,0,0,0,0,0,0,0,0,0,0,0,0,0,0,0,0,0,0,0,0,0,0,0,0,0,0,0,0,0,0,0,0,0,0,0,0,0,0,0,0,0,0,0,0,0,0,0],"sum_hessian":[2.9470559E4,2.9376182E4,9.437662E1,9.872574E3,1.9503607E4,9.643522E3,2.2905142E2,9.1854065E2,1.8585066E4,9.569224E3,7.429885E1,1.8486969E2,4.4181744E1,1.7714774E2,7.413929E2,1.6193869E4,2.3911968E3,7.68637E3,1.8828539E3,5.9728996E1,1.4569854E1,4.4017555E1,1.4085213E2,2.8556555E1,1.5625187E1,1.6858151E2,8.566218E0,4.811024E2,2.6029053E2,1.4038091E4,2.1557786E3,2.0760522E3,3.1514465E2,2.8990525E3,4.7873174E3,1.1786737E3,7.041801E2,5.5963818E1,3.7651794E0,8.582934E0,5.9869194E0,3.5433994E1,8.583562E0,1.206855E2,2.0166624E1,2.5963734E1,2.5928214E0,4.251472E0,1.1373714E1,1.5780507E2,1.0776452E1,3.3440764E0,5.2221427E0,3.7944954E1,4.4315744E2,3.278749E1,2.2750304E2,1.3514648E4,5.234424E2,1.4111158E3,7.446628E2,7.500591E1,2.0010463E3,5.032454E1,2.6482013E2],"tree_param":{"num_deleted":"0","num_feature":"6","num_nodes":"65","size_leaf_vector":"1"}},{"base_weights":[-1.254904E-3,1.1360416E-3,-2.9636288E-1,4.091986E-3,-5.809513E-3,1.5970685E-3,3.6625344E-2,7.144367E-2,-1.1348473E-2,-2.5698632E-2,4.697808E-3,-2.1123994E-2,9.54993E-2,-4.989189E-1,8.478609E-2,-2.4404231E-2,2.5705852E-2,-5.917689E-2,3.0576458E-2,6.216832E-2,2.3636275E-3,-2.4282053E-1,1.17668975E-2,1.6765933E-2,3.1016347E-1,-2.5495157E-1,-3.3459994E-1,1.2550874E-1,-1.1502741E-1,1.59783E-2,-3.8906477E-2,-2.7578441E-2,5.774549E-2,-1.8544545E-3,-4.8385292E-2,2.532224E-2,-3.0542666E-2,3.5384186E-2,-3.0426983E-2,-5.9846654E-3,2.8856574E-3,1.8035221E-1,-9.835305E-2,5.538411E-2,-1.4603884E-2,4.1294664E-2,-3.0600445E-2,9.948017E-2,-2.5555933E-1,2.5426966E-1,-1.9576524E-1,1.4688769E-1,3.1953193E-2,1.735755E-2,-9.572211E-2,-6.7187357E-3,2.5191417E-2,-1.077854E-2,-9.5962115E-2,1.43461E-2,-3.0713988E-2,6.4592003E-3,3.9850734E-2],"categories":[],"categories_nodes":[],"categories_segments":[],"categories_sizes":[],"default_left":[0,0,0,0,0,0,0,0,0,0,0,0,0,0,0,0,0,0,0,0,0,0,0,0,0,0,0,0,0,0,0,0,0,0,0,0,0,0,0,0,0,0,0,0,0,0,0,0,0,0,0,0,0,0,0,0,0,0,0,0,0,0,0],"id":18,"left_children":[1,3,-1,5,7,9,11,13,15,17,19,21,23,25,27,29,31,33,35,37,39,41,43,45,47,49,-1,51,53,55,57,59,61,-1,-1,-1,-1,-1,-1,-1,-1,-1,-1,-1,-1,-1,-1,-1,-1,-1,-1,-1,-1,-1,-1,-1,-1,-1,-1,-1,-1,-1,-1],"loss_changes":[6.945235E1,6.030366E-1,0E0,1.6722897E0,3.7529914E0,1.6198225E0,4.9912744E0,4.507752E0,3.9593325E0,3.679977E0,2.3052616E0,5.410624E0,1.2279198E1,1.7545776E0,4.686892E0,3.5446036E0,3.6422107E0,6.6247387E0,5.2029295E0,6.1322727E0,2.673846E0,7.0758038E0,6.7663736E0,7.6640778E0,5.139759E0,5.379389E0,0E0,3.250898E0,3.4663486E0,4.1757746E0,3.7142677E0,4.5249815E0,3.6195054E0,0E0,0E0,0E0,0E0,0E0,0E0,0E0,0E0,0E0,0E0,0E0,0E0,0E0,0E0,0E0,0E0,0E0,0E0,0E0,0E0,0E0,0E0,0E0,0E0,0E0,0E0,0E0,0E0,0E0,0E0],"parents":[2147483647,0,0,1,1,3,3,4,4,5,5,6,6,7,7,8,8,9,9,10,10,11,11,12,12,13,13,14,14,15,15,16,16,17,17,18,18,19,19,20,20,21,21,22,22,23,23,24,24,25,25,27,27,28,28,29,29,30,30,31,31,32,32],"right_children":[2,4,-1,6,8,10,12,14,16,18,20,22,24,26,28,30,32,34,36,38,40,42,44,46,48,50,-1,52,54,56,58,60,62,-1,-1,-1,-1,-1,-1,-1,-1,-1,-1,-1,-1,-1,-1,-1,-1,-1,-1,-1,-1,-1,-1,-1,-1,-1,-1,-1,-1,-1,-1],"split_conditions":[9.9250305E-1,7.816905E-1,-2.9636288E-1,6.07996E-1,-1.4367657E0,-1.3212512E0,2.2251312E-1,-1.6700006E0,8.254965E-1,6.5834427E-1,-1.5923783E0,-1.3445796E0,7.842624E-1,-1.6826671E0,1.1890321E0,-8.107797E-1,-2.13318E-1,4.0358245E-2,7.4403733E-1,9.890382E-1,-7.826318E-1,-1.4651718E0,-1.0849802E0,-3.9243484E-1,1.7217429E0,-6.491491E-1,-3.3459994E-1,-1.565898E0,1.2431693E-1,-1.139283E0,7.979731E-1,1.8043692E-1,5.814103E-1,-1.8544545E-3,-4.8385292E-2,2.532224E-2,-3.0542666E-2,3.5384186E-2,-3.0426983E-2,-5.9846654E-3,2.8856574E-3,1.8035221E-1,-9.835305E-2,5.538411E-2,-1.4603884E-2,4.1294664E-2,-3.0600445E-2,9.948017E-2,-2.5555933E-1,2.5426966E-1,-1.9576524E-1,1.4688769E-1,3.1953193E-2,1.735755E-2,-9.572211E-2,-6.7187357E-3,2.5191417E-2,-1.077854E-2,-9.5962115E-2,1.43461E-2,-3.0713988E-2,6.4592003E-3,3.9850734E-2],"split_indices":[0,5,0,5,4,4,1,3,3,1,2,0,2,3,3,2,1,0,2,4,2,3,1,0,2,1,0,2,2,2,3,4,2,0,0,0,0,0,0,0,0,0,0,0,0,0,0,0,0,0,0,0,0,0,0,0,0,0,0,0,0,0,0],"split_type":[0,0,0,0,0,0,0,0,0,0,0,0,0,0,0,0,0,0,0,0,0,0,0,0,0,0,0,0,0,0,0,0,0,0,0,0,0,0,0,0,0,0,0,0,0,0,0,0,0,0,0,0,0,0,0,0,0,0,0,0,0,0,0],"sum_hessian":[2.9440488E4,2.937031E4,7.017619E1,2.0602531E4,8.767779E3,1.9136074E4,1.4664579E3,5.85786E2,8.181993E3,1.9513265E3,1.7184748E4,7.406232E2,7.258346E2,1.2558098E1,5.732279E2,6.0504966E3,2.1314966E3,1.2234438E3,7.2788275E2,6.697212E2,1.6515025E4,9.485869E1,6.457646E2,5.3184534E2,1.9398926E2,1.0009926E1,2.548172E0,4.764896E2,9.67383E1,1.5987004E3,4.4517964E3,8.0044183E2,1.3310548E3,8.061169E2,4.1732693E2,5.1772565E2,2.1015706E2,4.9964044E2,1.7008075E2,4.0519712E3,1.2463056E4,8.125803E0,8.673289E1,1.6678596E2,4.789786E2,2.6349643E2,2.683489E2,1.9117706E2,2.8121982E0,2.3531325E0,7.656793E0,2.2399984E1,4.540896E2,5.275558E1,4.3982716E1,1.0223659E3,5.763345E2,4.406222E3,4.5574318E1,3.988091E2,4.0163275E2,8.988438E2,4.3221097E2],"tree_param":{"num_deleted":"0","num_feature":"6","num_nodes":"63","size_leaf_vector":"1"}},{"base_weights":[-9.513059E-4,8.2809903E-4,-2.9479155E-1,1.1204602E-3,-7.404057E-2,8.134871E-4,7.9890914E-2,-4.6505523E-1,-1.3878452E-2,7.6681525E-3,-2.089555E-3,7.165774E-1,4.0674463E-2,-7.691624E-2,-1.1188967E0,1.6347915E-1,-1.7516066E-1,4.106462E-2,-2.6199291E-3,-2.9117895E-2,1.4975895E-3,-1.6577676E-2,8.951023E-1,-2.1276669E-1,1.3849598E-1,-5.606097E-1,4.7464886E-1,-1.2778483E-2,-4.458514E-1,-1.8776794E-1,1.9541936E-1,-3.001261E-1,2.904575E-1,3.885091E-3,3.3974852E-2,8.2765315E-3,-6.3011246E-3,-6.3996636E-3,-7.7984124E-2,2.9354392E-2,-2.0496239E-4,3.5755253E-1,-4.4226203E-2,4.427788E-2,-1.6413647E-1,1.2338265E-2,2.3986697E-1,2.714551E-2,-2.6332405E-1,-2.0683333E-1,3.13871E-1,-5.9956163E-3,9.962969E-2,-3.9902415E-2,-2.8672412E-1,8.709138E-4,2.6977882E-1],"categories":[],"categories_nodes":[],"categories_segments":[],"categories_sizes":[],"default_left":[0,0,0,0,0,0,0,0,0,0,0,0,0,0,0,0,0,0,0,0,0,0,0,0,0,0,0,0,0,0,0,0,0,0,0,0,0,0,0,0,0,0,0,0,0,0,0,0,0,0,0,0,0,0,0,0,0],"id":19,"left_children":[1,3,-1,5,7,9,11,13,15,17,19,21,23,25,27,29,31,33,35,37,39,-1,41,43,45,47,49,-1,-1,-1,51,53,55,-1,-1,-1,-1,-1,-1,-1,-1,-1,-1,-1,-1,-1,-1,-1,-1,-1,-1,-1,-1,-1,-1,-1,-1],"loss_changes":[5.1390717E1,6.4288616E-1,0E0,7.073007E-1,2.6811056E0,5.799061E-1,2.8060467E0,3.7722764E0,2.8903236E0,2.9790168E0,1.9849015E0,9.4898415E-1,2.7075565E0,3.0977657E0,2.146202E0,1.3366601E0,3.1639845E0,4.1424923E0,3.682035E0,4.3053274E0,3.7978578E0,0E0,1.8338447E0,3.7528534E0,5.0228033E0,1.3417505E0,4.3812895E0,0E0,0E0,0E0,1.3919492E0,4.494549E0,2.045145E0,0E0,0E0,0E0,0E0,0E0,0E0,0E0,0E0,0E0,0E0,0E0,0E0,0E0,0E0,0E0,0E0,0E0,0E0,0E0,0E0,0E0,0E0,0E0,0E0],"parents":[2147483647,0,0,1,1,3,3,4,4,5,5,6,6,7,7,8,8,9,9,10,10,11,11,12,12,13,13,14,14,15,15,16,16,17,17,18,18,19,19,20,20,22,22,23,23,24,24,25,25,26,26,30,30,31,31,32,32],"right_children":[2,4,-1,6,8,10,12,14,16,18,20,22,24,26,28,30,32,34,36,38,40,-1,42,44,46,48,50,-1,-1,-1,52,54,56,-1,-1,-1,-1,-1,-1,-1,-1,-1,-1,-1,-1,-1,-1,-1,-1,-1,-1,-1,-1,-1,-1,-1,-1],"split_conditions":[9.9250305E-1,1.7167095E0,-2.9479155E-1,1.7035892E0,-1.2057368E0,-6.0786575E-1,-1.565898E0,-1.3212512E0,2.2251312E-1,-8.591933E-1,-1.327357E0,-6.491491E-1,-6.2816435E-1,-6.521107E-1,-8.6782135E-2,-1.5793258E0,1.1045527E0,-1.0902222E0,-2.13318E-1,-1.3405672E0,-1.2597656E0,-1.6577676E-2,1.1290796E0,-4.7899345E-1,6.4626855E-1,-2.5409475E-1,-6.491491E-1,-1.2778483E-2,-4.458514E-1,-1.8776794E-1,-2.6047668E-1,4.7315133E-1,9.200581E-1,3.885091E-3,3.3974852E-2,8.2765315E-3,-6.3011246E-3,-6.3996636E-3,-7.7984124E-2,2.9354392E-2,-2.0496239E-4,3.5755253E-1,-4.4226203E-2,4.427788E-2,-1.6413647E-1,1.2338265E-2,2.3986697E-1,2.714551E-2,-2.6332405E-1,-2.0683333E-1,3.13871E-1,-5.9956163E-3,9.962969E-2,-3.9902415E-2,-2.8672412E-1,8.709138E-4,2.6977882E-1],"split_indices":[0,3,0,3,4,5,2,4,1,4,2,1,4,0,5,2,4,4,1,2,2,0,5,0,0,2,1,0,0,0,5,0,2,0,0,0,0,0,0,0,0,0,0,0,0,0,0,0,0,0,0,0,0,0,0,0,0],"split_type":[0,0,0,0,0,0,0,0,0,0,0,0,0,0,0,0,0,0,0,0,0,0,0,0,0,0,0,0,0,0,0,0,0,0,0,0,0,0,0,0,0,0,0,0,0,0,0,0,0,0,0,0,0,0,0,0,0],"sum_hessian":[2.9418135E4,2.9365906E4,5.222945E1,2.925266E4,1.1324625E2,2.914011E4,1.1255042E2,1.4203392E1,9.9042854E1,8.669064E3,2.0471045E4,5.528112E0,1.0702231E2,9.613928E0,4.5894647E0,4.7164135E1,5.187872E1,2.0409336E3,6.6281313E3,2.3977102E3,1.8073334E4,1.1681577E0,4.359954E0,2.9476913E1,7.7545395E1,5.1133723E0,4.500555E0,1.4515774E0,3.1378872E0,1.1110015E0,4.6053135E1,4.118158E1,1.0697139E1,1.4696996E3,5.712341E2,2.5074229E3,4.120708E3,2.320533E3,7.717729E1,3.9904745E2,1.7674287E4,3.2824292E0,1.0775249E0,1.4455595E1,1.5021319E1,6.851583E1,9.029568E0,1.9089355E0,3.2044368E0,1.414203E0,3.086352E0,1.8209324E1,2.784381E1,3.3775154E1,7.406428E0,7.947906E0,2.7492328E0],"tree_param":{"num_deleted":"0","num_feature":"6","num_nodes":"57","size_leaf_vector":"1"}},{"base_weights":[-7.3903124E-4,5.870293E-4,-2.9280195E-1,3.433909E-4,6.499144E-2,6.6128146E-4,-8.014383E-2,-3.9359513E-1,9.1355175E-2,1.9964635E-4,6.0705755E-2,-2.4681096E-1,4.788943E-2,3.6871636E-1,-8.7656856E-1,6.595599E-1,4.014665E-2,7.84011E-4,-7.2800465E-2,6.138906E-1,3.2766648E-2,-2.748227E-2,-7.791548E-1,4.0332144E-1,-5.0575357E-2,2.2602196E-1,-6.0723163E-2,-3.4535754E-1,-6.1511535E-2,9.072828E-1,-1.5456653E-1,-7.827394E-1,8.571641E-2,1.1793831E-3,-1.6293237E-3,-1.6174237E-1,-5.624654E-3,4.339976E-2,3.4348363E-1,-1.3354793E-1,2.753778E-2,-1.4142163E-1,5.6555178E-2,-4.836264E-1,-1.574735E-1,3.035117E-1,3.958493E-2,1.8779283E-2,-1.9470988E-1,-7.355045E-2,3.3964044E-1,-3.7131333E-1,1.0573779E-2,3.42029E-2,-1.3518873E-1],"categories":[],"categories_nodes":[],"categories_segments":[],"categories_sizes":[],"default_left":[0,0,0,0,0,0,0,0,0,0,0,0,0,0,0,0,0,0,0,0,0,0,0,0,0,0,0,0,0,0,0,0,0,0,0,0,0,0,0,0,0,0,0,0,0,0,0,0,0,0,0,0,0,0,0],"id":20,"left_children":[1,3,-1,5,7,9,11,13,15,17,19,21,23,25,27,29,31,33,35,37,39,41,43,45,47,-1,-1,-1,-1,49,-1,51,53,-1,-1,-1,-1,-1,-1,-1,-1,-1,-1,-1,-1,-1,-1,-1,-1,-1,-1,-1,-1,-1,-1],"loss_changes":[3.802463E1,4.6071935E-1,0E0,7.4852544E-1,1.3737652E0,8.0768013E-1,2.4677365E0,2.6073449E0,3.0417829E0,1.2336458E0,3.4158597E0,5.8356485E0,2.3276768E0,8.357976E-1,5.18945E-1,2.9856474E0,3.7343445E0,5.6119365E-1,5.77875E0,2.483683E0,6.040642E0,3.5948231E0,2.2457447E0,2.2460802E0,3.597346E0,0E0,0E0,0E0,0E0,2.2231965E0,0E0,1.9901345E0,1.4712417E0,0E0,0E0,0E0,0E0,0E0,0E0,0E0,0E0,0E0,0E0,0E0,0E0,0E0,0E0,0E0,0E0,0E0,0E0,0E0,0E0,0E0,0E0],"parents":[2147483647,0,0,1,1,3,3,4,4,5,5,6,6,7,7,8,8,9,9,10,10,11,11,12,12,13,13,14,14,15,15,16,16,17,17,18,18,19,19,20,20,21,21,22,22,23,23,24,24,29,29,31,31,32,32],"right_children":[2,4,-1,6,8,10,12,14,16,18,20,22,24,26,28,30,32,34,36,38,40,42,44,46,48,-1,-1,-1,-1,50,-1,52,54,-1,-1,-1,-1,-1,-1,-1,-1,-1,-1,-1,-1,-1,-1,-1,-1,-1,-1,-1,-1,-1,-1],"split_conditions":[9.9250305E-1,1.7217429E0,-2.9280195E-1,1.7078687E0,-1.6152697E0,1.6817653E0,-3.0908537E-1,-4.341712E-1,-1.3814291E0,1.6543949E0,-1.5742738E0,-7.2743624E-1,8.58828E-2,2.1347548E-1,-4.620037E-2,9.55385E-1,-1.2180672E0,5.661966E-1,-1.3952087E0,-1.6427734E0,-1.1895916E0,-1.4091028E0,-1.3212512E0,-9.9834514E-1,1.3027741E0,2.2602196E-1,-6.0723163E-2,-3.4535754E-1,-6.1511535E-2,-1.3026439E0,-1.5456653E-1,7.816905E-1,1.6205801E0,1.1793831E-3,-1.6293237E-3,-1.6174237E-1,-5.624654E-3,4.339976E-2,3.4348363E-1,-1.3354793E-1,2.753778E-2,-1.4142163E-1,5.6555178E-2,-4.836264E-1,-1.574735E-1,3.035117E-1,3.958493E-2,1.8779283E-2,-1.9470988E-1,-7.355045E-2,3.3964044E-1,-3.7131333E-1,1.0573779E-2,3.42029E-2,-1.3518873E-1],"split_indices":[0,2,0,2,3,2,3,5,3,2,3,3,3,0,0,5,3,3,3,3,3,3,4,0,5,0,0,0,0,5,0,5,3,0,0,0,0,0,0,0,0,0,0,0,0,0,0,0,0,0,0,0,0,0,0],"split_type":[0,0,0,0,0,0,0,0,0,0,0,0,0,0,0,0,0,0,0,0,0,0,0,0,0,0,0,0,0,0,0,0,0,0,0,0,0,0,0,0,0,0,0,0,0,0,0,0,0,0,0,0,0,0,0],"sum_hessian":[2.940063E4,2.9361707E4,3.8923397E1,2.9252053E4,1.0965362E2,2.9137963E4,1.1409088E2,5.2039304E0,1.0444969E2,2.8916648E4,2.2131422E2,4.9164E1,6.492688E1,2.110053E0,3.0938773E0,7.652989E0,9.67967E1,2.868799E4,2.286576E2,9.631973E0,2.1168225E2,3.5563328E1,1.3600671E1,1.3413082E1,5.15138E1,1.0701089E0,1.039944E0,1.6889125E0,1.4049649E0,6.508302E0,1.1446867E0,4.2303047E0,9.25664E1,1.904443E4,9.643562E3,2.2817827E1,2.0583977E2,5.789208E0,3.8427653E0,2.2550627E1,1.8913162E2,1.1253222E1,2.4310108E1,1.9316388E0,1.1669032E1,3.2959106E0,1.0117171E1,4.407439E1,7.4394083E0,1.0477636E0,5.4605384E0,2.388613E0,1.8416917E0,8.8676E1,3.890395E0],"tree_param":{"num_deleted":"0","num_feature":"6","num_nodes":"55","size_leaf_vector":"1"}},{"base_weights":[-5.964693E-4,3.935032E-4,-2.9025382E-1,5.8276923E-3,-2.3562412E-3,-1.4309466E-3,4.066994E-2,-3.7489995E-2,8.202024E-4,2.9806935E-3,-1.00493826E-1,2.8446123E-2,2.2912765E-1,-5.0400883E-2,1.5133607E-1,1.4367065E-3,-1.529304E-1,-1.8038685E-3,8.051025E-2,-2.2837193E-1,-1.3838032E-2,6.523652E-3,1.4363553E-1,3.2107845E-1,-2.8188697E-1,-3.143741E-2,-2.1374016E-1,6.6567665E-1,-1.3093596E-2,4.629549E-2,-8.082751E-5,-6.997309E-1,-6.264945E-2,9.910605E-3,-3.123157E-3,-4.1544557E-2,6.436595E-2,-9.36894E-2,-3.1667224E-3,-7.7226564E-2,2.708389E-2,1.119948E-2,-4.376795E-2,8.603246E-2,-2.1868385E-2,-1.2771653E-1,1.06730804E-1,2.8100204E-1,-1.4268532E-1,4.1662725E-3,-1.9899214E-2,-8.373502E-2,7.37144E-2,3.807113E-1,1.0947118E-1,-1.8929934E-2,3.4237552E-1,-3.8996295E-3,5.8882926E-2,-2.2526202E-3,2.7451399E-3,1.3613357E-1,-3.0648118E-1,-1.307173E-1,2.4452982E-2],"categories":[],"categories_nodes":[],"categories_segments":[],"categories_sizes":[],"default_left":[0,0,0,0,0,0,0,0,0,0,0,0,0,0,0,0,0,0,0,0,0,0,0,0,0,0,0,0,0,0,0,0,0,0,0,0,0,0,0,0,0,0,0,0,0,0,0,0,0,0,0,0,0,0,0,0,0,0,0,0,0,0,0,0,0],"id":21,"left_children":[1,3,-1,5,7,9,11,13,15,17,19,21,23,25,27,29,31,33,35,37,39,41,43,45,47,49,51,53,55,57,59,61,63,-1,-1,-1,-1,-1,-1,-1,-1,-1,-1,-1,-1,-1,-1,-1,-1,-1,-1,-1,-1,-1,-1,-1,-1,-1,-1,-1,-1,-1,-1,-1,-1],"loss_changes":[2.8132124E1,4.3872833E-1,0E0,2.4949934E0,2.1757822E0,3.5687134E0,3.9117246E0,3.948515E0,1.6950655E0,2.9001932E0,3.8548253E0,4.0354185E0,4.9519405E0,4.6822376E0,8.779232E0,1.212414E0,3.4818208E0,2.2085981E0,1.3369741E1,2.5662475E0,5.3133173E0,6.3158793E0,7.940412E0,2.435193E0,4.295847E0,2.1478624E0,4.7933636E0,4.0993977E0,4.664713E0,5.185248E0,1.1813927E0,4.1847715E0,3.3913536E0,0E0,0E0,0E0,0E0,0E0,0E0,0E0,0E0,0E0,0E0,0E0,0E0,0E0,0E0,0E0,0E0,0E0,0E0,0E0,0E0,0E0,0E0,0E0,0E0,0E0,0E0,0E0,0E0,0E0,0E0,0E0,0E0],"parents":[2147483647,0,0,1,1,3,3,4,4,5,5,6,6,7,7,8,8,9,9,10,10,11,11,12,12,13,13,14,14,15,15,16,16,17,17,18,18,19,19,20,20,21,21,22,22,23,23,24,24,25,25,26,26,27,27,28,28,29,29,30,30,31,31,32,32],"right_children":[2,4,-1,6,8,10,12,14,16,18,20,22,24,26,28,30,32,34,36,38,40,42,44,46,48,50,52,54,56,58,60,62,64,-1,-1,-1,-1,-1,-1,-1,-1,-1,-1,-1,-1,-1,-1,-1,-1,-1,-1,-1,-1,-1,-1,-1,-1,-1,-1,-1,-1,-1,-1,-1,-1],"split_conditions":[9.9250305E-1,-5.643685E-1,-2.9025382E-1,-7.698845E-1,-3.749876E-1,-8.107797E-1,8.1938577E-1,1.5666106E0,1.7167095E0,-8.6539936E-1,-3.3667642E-1,1.2200671E0,1.2200671E0,1.2200671E0,-1.0849037E0,-1.5522802E0,-1.17045715E-1,-9.552548E-1,-2.13318E-1,2.1347548E-1,-6.0786575E-1,7.580093E-1,2.606069E-1,-1.5742738E0,-1.4922724E0,-4.7899345E-1,1.5300065E0,-6.887046E-1,9.059444E-1,2.1347548E-1,2.959514E-1,-1.1714624E0,-1.1714624E0,9.910605E-3,-3.123157E-3,-4.1544557E-2,6.436595E-2,-9.36894E-2,-3.1667224E-3,-7.7226564E-2,2.708389E-2,1.119948E-2,-4.376795E-2,8.603246E-2,-2.1868385E-2,-1.2771653E-1,1.06730804E-1,2.8100204E-1,-1.4268532E-1,4.1662725E-3,-1.9899214E-2,-8.373502E-2,7.37144E-2,3.807113E-1,1.0947118E-1,-1.8929934E-2,3.4237552E-1,-3.8996295E-3,5.8882926E-2,-2.2526202E-3,2.7451399E-3,1.3613357E-1,-3.0648118E-1,-1.307173E-1,2.4452982E-2],"split_indices":[0,2,0,2,2,2,0,4,3,2,3,4,4,4,0,4,2,5,1,0,5,4,5,3,3,0,1,3,0,0,4,0,0,0,0,0,0,0,0,0,0,0,0,0,0,0,0,0,0,0,0,0,0,0,0,0,0,0,0,0,0,0,0,0,0],"split_type":[0,0,0,0,0,0,0,0,0,0,0,0,0,0,0,0,0,0,0,0,0,0,0,0,0,0,0,0,0,0,0,0,0,0,0,0,0,0,0,0,0,0,0,0,0,0,0,0,0,0,0,0,0,0,0,0,0,0,0,0,0,0,0,0,0],"sum_hessian":[2.9387986E4,2.9358928E4,2.9059404E1,9.864019E3,1.949491E4,8.1641504E3,1.6998677E3,1.6155011E3,1.7879408E4,7.8170005E3,3.4715033E2,1.597407E3,1.024607E2,1.5127975E3,1.02703674E2,1.7808988E4,7.041925E1,7.3635522E3,4.5344827E2,1.3956242E2,2.075879E2,1.3428893E3,2.5451765E2,8.715069E1,1.5310015E1,1.3565018E3,1.5629561E2,2.4141136E1,7.856254E1,5.817833E2,1.7227205E4,9.022498E0,6.139675E1,1.458162E3,5.90539E3,1.7215598E2,2.812923E2,1.0043166E2,3.913076E1,6.1720364E1,1.4586754E2,1.1177201E3,2.2516924E2,1.5303079E2,1.0148688E2,3.3683095E0,8.378238E1,1.5740938E0,1.3735921E1,5.903122E2,7.6618964E2,1.3716997E2,1.9125635E1,6.959956E0,1.7181181E1,7.6206604E1,2.3559296E0,4.176003E2,1.64183E2,9.546144E3,7.681062E3,1.8789661E0,7.1435323E0,1.6548311E1,4.484844E1],"tree_param":{"num_deleted":"0","num_feature":"6","num_nodes":"65","size_leaf_vector":"1"}},{"base_weights":[-4.0403722E-4,3.3694104E-4,-2.8698486E-1,-5.9914216E-3,2.5389504E-3,-9.885247E-2,-5.097147E-4,2.6733393E-2,-1.0913854E-3,-1.7470852E-1,-3.6973201E-3,8.620231E-2,-4.6211807E-3,3.6938827E-2,-1.1629987E-1,2.9711163E-2,-3.7798488E-3,-2.537199E-1,9.5821366E-2,2.7907485E-1,-8.9791805E-2,5.0529722E-2,4.241293E-1,-1.2998945E-2,3.7343316E-2,-7.720842E-4,5.9627183E-2,-3.69774E-2,-2.8763524E-1,-1.2498505E-3,8.331012E-2,-9.428296E-2,-2.5854371E-3,3.860103E-3,-9.509001E-2,-2.0055623E-1,7.785958E-2,3.97248E-3,1.6954438E-1,3.787095E-2,-7.1132556E-2,6.269857E-2,-1.7205162E-2,2.529094E-1,4.4812545E-2,-2.538525E-3,-3.6882974E-2,1.568392E-2,-5.041107E-2,1.5746915E-1,-2.6018019E-3,1.0311871E-3,2.5317216E-2,-1.3158113E-1,6.4376933E-3,8.794569E-2,-1.4353156E-1,-2.9736264E-2,1.2441215E-2,1.3041265E-2,8.609531E-2,-4.0182706E-2,9.582944E-2,-1.1010682E-2,3.6032673E-4],"categories":[],"categories_nodes":[],"categories_segments":[],"categories_sizes":[],"default_left":[0,0,0,0,0,0,0,0,0,0,0,0,0,0,0,0,0,0,0,0,0,0,0,0,0,0,0,0,0,0,0,0,0,0,0,0,0,0,0,0,0,0,0,0,0,0,0,0,0,0,0,0,0,0,0,0,0,0,0,0,0,0,0,0,0],"id":22,"left_children":[1,3,-1,5,7,9,11,13,15,17,19,21,23,25,27,29,31,33,35,37,39,41,43,45,47,49,51,53,55,57,59,61,63,-1,-1,-1,-1,-1,-1,-1,-1,-1,-1,-1,-1,-1,-1,-1,-1,-1,-1,-1,-1,-1,-1,-1,-1,-1,-1,-1,-1,-1,-1,-1,-1],"loss_changes":[2.0815023E1,4.0908685E-1,0E0,3.8574545E0,1.9129134E0,3.048286E0,2.5518382E0,4.1520777E0,1.5683901E0,5.0477123E0,4.611379E0,3.8845801E0,2.4029717E0,2.2699647E0,2.5645373E0,2.5230732E0,1.8826692E0,3.0755148E0,6.911683E0,3.3548632E0,4.650034E0,5.0417576E0,3.419416E0,2.8409119E0,3.498176E0,4.1475387E0,2.304596E0,3.0760696E0,6.7686987E0,4.0374684E0,4.504516E0,3.765004E0,2.2210736E0,0E0,0E0,0E0,0E0,0E0,0E0,0E0,0E0,0E0,0E0,0E0,0E0,0E0,0E0,0E0,0E0,0E0,0E0,0E0,0E0,0E0,0E0,0E0,0E0,0E0,0E0,0E0,0E0,0E0,0E0,0E0,0E0],"parents":[2147483647,0,0,1,1,3,3,4,4,5,5,6,6,7,7,8,8,9,9,10,10,11,11,12,12,13,13,14,14,15,15,16,16,17,17,18,18,19,19,20,20,21,21,22,22,23,23,24,24,25,25,26,26,27,27,28,28,29,29,30,30,31,31,32,32],"right_children":[2,4,-1,6,8,10,12,14,16,18,20,22,24,26,28,30,32,34,36,38,40,42,44,46,48,50,52,54,56,58,60,62,64,-1,-1,-1,-1,-1,-1,-1,-1,-1,-1,-1,-1,-1,-1,-1,-1,-1,-1,-1,-1,-1,-1,-1,-1,-1,-1,-1,-1,-1,-1,-1,-1],"split_conditions":[9.9250305E-1,-9.9834514E-1,-2.8698486E-1,-1.5468973E0,-7.386693E-1,2.606069E-1,-1.3952087E0,1.5666106E0,-1.4506221E0,1.0941753E0,-1.6955057E0,1.4764686E0,1.2200671E0,-2.13318E-1,-8.252279E-1,6.5834427E-1,-1.4091028E0,-1.3026439E0,-1.0902222E0,2.2251312E-1,-2.13318E-1,-4.341712E-1,-1.4922724E0,1.1045527E0,1.490584E0,-1.6826671E0,-6.0786575E-1,-1.0849802E0,-9.62658E-1,-6.2816435E-1,1.2200671E0,8.1938577E-1,-5.6555206E-1,3.860103E-3,-9.509001E-2,-2.0055623E-1,7.785958E-2,3.97248E-3,1.6954438E-1,3.787095E-2,-7.1132556E-2,6.269857E-2,-1.7205162E-2,2.529094E-1,4.4812545E-2,-2.538525E-3,-3.6882974E-2,1.568392E-2,-5.041107E-2,1.5746915E-1,-2.6018019E-3,1.0311871E-3,2.5317216E-2,-1.3158113E-1,6.4376933E-3,8.794569E-2,-1.4353156E-1,-2.9736264E-2,1.2441215E-2,1.3041265E-2,8.609531E-2,-4.0182706E-2,9.582944E-2,-1.1010682E-2,3.6032673E-4],"split_indices":[0,0,0,3,0,5,3,4,3,1,3,5,4,1,0,1,3,5,4,1,1,5,3,4,2,3,5,1,2,4,4,0,0,0,0,0,0,0,0,0,0,0,0,0,0,0,0,0,0,0,0,0,0,0,0,0,0,0,0,0,0,0,0,0,0],"split_type":[0,0,0,0,0,0,0,0,0,0,0,0,0,0,0,0,0,0,0,0,0,0,0,0,0,0,0,0,0,0,0,0,0,0,0,0,0,0,0,0,0,0,0,0,0,0,0,0,0,0,0,0,0,0,0,0,0,0,0,0,0,0,0,0,0],"sum_hessian":[2.9376207E4,2.9354459E4,2.1747414E1,7.577044E3,2.1777416E4,4.2140128E2,7.1556426E3,2.8404978E3,1.8936918E4,2.3401363E2,1.8738766E2,3.2302316E2,6.8326196E3,2.652018E3,1.8847992E2,1.5193386E3,1.7417578E4,1.8116457E2,5.2849068E1,4.3213623E1,1.4417404E2,2.9321954E2,2.9803606E1,5.6961367E3,1.1364827E3,9.965658E2,1.6554521E3,1.2966516E2,5.8814762E1,9.63663E2,5.556756E2,2.2585854E2,1.719172E4,3.4891705E1,1.4627286E2,8.778748E0,4.407032E1,2.2941519E1,2.0272104E1,5.8512768E1,8.566127E1,1.1838553E2,1.7483401E2,1.0985828E1,1.8817778E1,5.4714185E3,2.2471825E2,1.0601295E3,7.635317E1,1.3787247E1,9.8277856E2,5.0674872E2,1.1487035E3,1.5643507E1,1.1402165E2,1.4411397E1,4.4403366E1,2.9242026E2,6.7124274E2,4.65781E2,8.989461E1,2.067184E2,1.9140142E1,1.7165756E3,1.5475145E4],"tree_param":{"num_deleted":"0","num_feature":"6","num_nodes":"65","size_leaf_vector":"1"}},{"base_weights":[-2.7411483E-4,2.8223265E-4,-2.828139E-1,-4.628695E-2,6.486206E-4,5.264237E-2,-2.1694277E-1,-7.258798E-4,1.5483048E-2,-6.3015175E-1,8.04753E-2,-3.383175E-1,2.9321247E-1,1.5896477E-3,-4.0193137E-2,8.8719726E-2,-3.7143242E-3,1.02336444E-1,-4.5761767E-1,-3.587167E-1,1.1646584E-1,-1.0434219E0,-2.549898E-1,-4.8721638E-1,8.568982E-1,1.0809393E-4,4.0709384E-2,-6.4124286E-2,3.9790872E-2,2.2829932E-1,4.7438852E-3,-2.4667366E-1,1.3469391E-2,2.367487E-1,-2.5686547E-1,5.4653447E-2,-2.2376665E-1,1.4529727E-1,1.6904244E-2,-4.351416E-1,5.731747E-2,1.0951852E-1,-9.766784E-2,-3.2184014E-1,8.689094E-2,2.9715404E-1,-3.14936E-2,1.1386332E-2,-3.7522046E-4,9.207013E-2,6.2233233E-3,3.7544906E-2,-2.4456434E-2,1.448007E-1,-1.0135194E-2,9.251182E-2,-2.013488E-2,-1.7001465E-2,7.9086356E-2,-1.2753098E-1,2.951055E-2,6.96275E-2,8.900573E-4],"categories":[],"categories_nodes":[],"categories_segments":[],"categories_sizes":[],"default_left":[0,0,0,0,0,0,0,0,0,0,0,0,0,0,0,0,0,0,0,0,0,0,0,0,0,0,0,0,0,0,0,0,0,0,0,0,0,0,0,0,0,0,0,0,0,0,0,0,0,0,0,0,0,0,0,0,0,0,0,0,0,0,0],"id":23,"left_children":[1,3,-1,5,7,9,11,13,15,17,19,21,23,25,27,29,31,33,-1,35,37,39,41,43,45,47,49,51,53,55,57,59,61,-1,-1,-1,-1,-1,-1,-1,-1,-1,-1,-1,-1,-1,-1,-1,-1,-1,-1,-1,-1,-1,-1,-1,-1,-1,-1,-1,-1,-1,-1],"loss_changes":[1.539864E1,5.008409E-1,0E0,3.8799448E0,5.9383947E-1,2.8226001E0,5.3179474E0,2.4359903E0,3.4726045E0,3.976509E0,2.2710202E0,3.7614665E0,7.7790728E0,1.4593029E0,2.8300843E0,6.0115376E0,8.176744E0,3.4022162E0,0E0,2.4241781E0,2.8720825E0,3.7550397E0,2.859201E0,3.7932255E0,1.3993125E0,1.2477071E0,4.876467E0,3.7554512E0,1.1121503E1,4.5782347E0,5.1232605E0,8.006544E0,4.199688E0,0E0,0E0,0E0,0E0,0E0,0E0,0E0,0E0,0E0,0E0,0E0,0E0,0E0,0E0,0E0,0E0,0E0,0E0,0E0,0E0,0E0,0E0,0E0,0E0,0E0,0E0,0E0,0E0,0E0,0E0],"parents":[2147483647,0,0,1,1,3,3,4,4,5,5,6,6,7,7,8,8,9,9,10,10,11,11,12,12,13,13,14,14,15,15,16,16,17,17,19,19,20,20,21,21,22,22,23,23,24,24,25,25,26,26,27,27,28,28,29,29,30,30,31,31,32,32],"right_children":[2,4,-1,6,8,10,12,14,16,18,20,22,24,26,28,30,32,34,-1,36,38,40,42,44,46,48,50,52,54,56,58,60,62,-1,-1,-1,-1,-1,-1,-1,-1,-1,-1,-1,-1,-1,-1,-1,-1,-1,-1,-1,-1,-1,-1,-1,-1,-1,-1,-1,-1,-1,-1],"split_conditions":[9.9250305E-1,-1.7091827E0,-2.828139E-1,6.5834427E-1,1.43436E0,-1.6042554E0,1.1045527E0,1.2563865E0,-9.841113E-1,1.3653386E-1,-1.4367657E0,-1.3663236E0,-7.386693E-1,1.149319E0,9.890382E-1,1.5448359E0,-8.095135E-1,7.816905E-1,-4.5761767E-1,-2.193176E-1,-9.747078E-1,-1.3275899E-1,-1.0847797E0,6.9008696E-1,6.4626855E-1,-1.5879043E0,-1.5176969E0,-1.4367657E0,-1.1289493E0,1.1290796E0,1.1290796E0,6.424948E-1,1.4489669E0,2.367487E-1,-2.5686547E-1,5.4653447E-2,-2.2376665E-1,1.4529727E-1,1.6904244E-2,-4.351416E-1,5.731747E-2,1.0951852E-1,-9.766784E-2,-3.2184014E-1,8.689094E-2,2.9715404E-1,-3.14936E-2,1.1386332E-2,-3.7522046E-4,9.207013E-2,6.2233233E-3,3.7544906E-2,-2.4456434E-2,1.448007E-1,-1.0135194E-2,9.251182E-2,-2.013488E-2,-1.7001465E-2,7.9086356E-2,-1.2753098E-1,2.951055E-2,6.96275E-2,8.900573E-4],"split_indices":[0,3,0,1,2,0,4,2,3,2,4,2,0,2,4,2,3,5,0,0,4,0,2,2,0,3,0,4,5,5,5,4,2,0,0,0,0,0,0,0,0,0,0,0,0,0,0,0,0,0,0,0,0,0,0,0,0,0,0,0,0,0,0],"split_type":[0,0,0,0,0,0,0,0,0,0,0,0,0,0,0,0,0,0,0,0,0,0,0,0,0,0,0,0,0,0,0,0,0,0,0,0,0,0,0,0,0,0,0,0,0,0,0,0,0,0,0,0,0,0,0,0,0,0,0,0,0,0,0],"sum_hessian":[2.9367074E4,2.9350748E4,1.632685E1,2.281391E2,2.912261E4,1.4485693E2,8.3282166E1,2.6653912E4,2.4686968E3,4.825983E0,1.4003096E2,6.7548134E1,1.5734034E1,2.5177707E4,1.4762057E3,5.1196466E2,1.9567322E3,3.1413832E0,1.6845998E0,9.926845E0,1.3010411E2,5.921293E0,6.162684E1,6.6553245E0,9.078709E0,2.425993E4,9.1777625E2,1.1363955E3,3.3981027E2,1.9166763E2,3.2029703E2,1.283695E2,1.8283627E3,1.933036E0,1.2083472E0,4.362176E0,5.5646687E0,1.7284678E1,1.12819435E2,4.321411E0,1.5998815E0,5.870792E0,5.5756046E1,3.5776045E0,3.07772E0,7.9452543E0,1.133454E0,8.399018E2,2.342003E4,6.3030094E1,8.5474615E2,9.51381E1,1.0412573E3,4.761789E1,2.9219238E2,1.5075983E2,4.0907814E1,2.595121E2,6.078494E1,8.4460785E1,4.390873E1,8.284066E1,1.745522E3],"tree_param":{"num_deleted":"0","num_feature":"6","num_nodes":"63","size_leaf_vector":"1"}},{"base_weights":[-2.0210462E-4,2.1734655E-4,-2.7755132E-1,-1.781059E-2,1.4021355E-3,-6.3516095E-2,2.1372754E-2,7.212564E-2,2.0847573E-4,-1.3552521E-1,-1.1360988E-2,2.7884737E-1,3.351158E-3,5.3635687E-1,4.828198E-2,-6.2108908E-2,1.2808638E-3,9.60839E-2,-1.9336769E-1,4.9653605E-2,-1.8401662E-1,3.3396447E-1,-7.3020923E-1,3.0959181E-2,-1.5083516E-1,6.640102E-1,-2.4880862E-1,-3.8303636E-2,1.8533804E-1,2.4191332E-1,-8.813093E-2,7.241012E-2,-2.6021682E-4,-1.2604813E-1,6.708911E-2,-4.1943535E-2,-1.3254945E-1,6.2786944E-2,-1.1150361E-2,-1.0375155E-1,2.8699841E-3,-2.5546473E-2,1.3296746E-1,-7.517682E-2,-2.785664E-1,-1.549065E-2,2.905763E-2,-3.271481E-2,-2.4437332E-1,-9.0133734E-2,2.328993E-1,-1.5299392E-1,1.1855544E-2,1.7046802E-1,1.3668943E-2,1.8350165E-2,1.7772403E-1,1.0524807E-2,-5.156693E-2,3.6638036E-2,-1.3797537E-2,-2.1652054E-2,4.111432E-4],"categories":[],"categories_nodes":[],"categories_segments":[],"categories_sizes":[],"default_left":[0,0,0,0,0,0,0,0,0,0,0,0,0,0,0,0,0,0,0,0,0,0,0,0,0,0,0,0,0,0,0,0,0,0,0,0,0,0,0,0,0,0,0,0,0,0,0,0,0,0,0,0,0,0,0,0,0,0,0,0,0,0,0],"id":24,"left_children":[1,3,-1,5,7,9,11,13,15,17,19,21,23,25,27,29,31,33,35,37,39,41,43,45,47,49,-1,51,53,55,57,59,61,-1,-1,-1,-1,-1,-1,-1,-1,-1,-1,-1,-1,-1,-1,-1,-1,-1,